<?xml version="1.0"?>
<opencv_storage>
<opencv_ml_svm>
  <format>3</format>
  <svmType>C_SVC</svmType>
  <kernel>
    <type>RBF</type>
    <gamma>1.0000000000000000e-02</gamma></kernel>
  <C>10.</C>
  <term_criteria><iterations>10</iterations></term_criteria>
  <var_count>784</var_count>
  <class_count>10</class_count>
  <class_labels type_id="opencv-matrix">
    <rows>10</rows>
    <cols>1</cols>
    <dt>i</dt>
    <data>
      0 1 2 3 4 5 6 7 8 9</data></class_labels>
  <sv_total>100</sv_total>
  <support_vectors>
    <_>
      3. 0. 0. 3. 7. 3. 0. 3. 0. 11. 0. 0. 3. 0. 0. 3. 8. 0. 0. 3. 0. 0.
      0. 2. 0. 0. 0. 0. 0. 0. 0. 0. 0. 0. 0. 1. 5. 0. 12. 0. 16. 0. 0.
      4. 0. 2. 8. 3. 0. 4. 8. 0. 0. 0. 0. 0. 0. 0. 2. 0. 0. 0. 1. 2. 1.
      12. 0. 8. 0. 0. 6. 0. 11. 0. 0. 6. 7. 2. 0. 0. 0. 0. 0. 0. 0. 1.
      3. 0. 0. 2. 3. 0. 0. 0. 12. 0. 0. 23. 0. 0. 0. 0. 11. 3. 0. 0. 4.
      0. 0. 0. 0. 0. 0. 1. 1. 0. 0. 2. 0. 0. 6. 0. 25. 27. 136. 135.
      188. 89. 84. 25. 0. 0. 3. 1. 0. 0. 0. 0. 0. 0. 4. 0. 0. 0. 0. 0.
      0. 0. 3. 88. 247. 236. 255. 249. 250. 227. 240. 136. 37. 1. 0. 2.
      2. 0. 0. 0. 0. 0. 2. 0. 0. 3. 0. 0. 4. 27. 193. 251. 253. 255.
      255. 255. 255. 240. 254. 255. 213. 89. 0. 0. 14. 1. 0. 0. 0. 0. 0.
      0. 0. 6. 0. 0. 18. 56. 246. 255. 253. 243. 251. 255. 245. 255.
      255. 254. 255. 231. 119. 7. 0. 5. 0. 0. 0. 0. 4. 0. 0. 12. 13. 0.
      65. 190. 246. 255. 255. 251. 255. 109. 88. 199. 255. 247. 250.
      255. 234. 92. 0. 0. 0. 0. 0. 0. 0. 10. 1. 0. 0. 18. 163. 248. 255.
      235. 216. 150. 128. 45. 6. 8. 22. 212. 255. 255. 252. 172. 0. 15.
      0. 0. 0. 0. 0. 1. 4. 5. 0. 0. 187. 255. 254. 94. 57. 7. 1. 0. 6.
      0. 0. 139. 242. 255. 255. 218. 62. 0. 0. 0. 0. 0. 5. 2. 0. 0. 11.
      56. 252. 235. 253. 20. 5. 2. 5. 1. 0. 1. 2. 0. 97. 249. 248. 249.
      166. 8. 0. 0. 0. 0. 0. 0. 2. 0. 0. 70. 255. 255. 245. 25. 10. 0.
      0. 1. 0. 4. 10. 0. 10. 255. 246. 250. 155. 0. 0. 0. 0. 0. 2. 0. 7.
      12. 0. 87. 226. 255. 184. 0. 3. 0. 10. 5. 0. 0. 0. 9. 0. 183. 251.
      255. 222. 15. 0. 0. 0. 0. 0. 5. 1. 0. 19. 230. 255. 243. 255. 35.
      2. 0. 0. 0. 0. 9. 8. 0. 0. 70. 245. 242. 255. 14. 0. 0. 0. 0. 0.
      4. 3. 0. 19. 251. 239. 255. 247. 30. 1. 0. 4. 4. 14. 0. 0. 2. 0.
      47. 255. 255. 247. 21. 0. 0. 0. 0. 6. 0. 2. 2. 0. 173. 247. 252.
      250. 28. 10. 0. 0. 8. 0. 0. 0. 8. 0. 67. 249. 255. 255. 12. 0. 0.
      0. 0. 0. 0. 6. 3. 0. 88. 255. 251. 255. 188. 21. 0. 15. 0. 8. 2.
      16. 0. 35. 200. 247. 251. 134. 4. 0. 0. 0. 0. 0. 3. 3. 1. 0. 11.
      211. 247. 249. 255. 189. 76. 0. 0. 4. 0. 2. 0. 169. 255. 255. 247.
      47. 0. 0. 0. 0. 0. 0. 6. 0. 0. 2. 0. 59. 205. 255. 240. 255. 182.
      41. 56. 28. 33. 42. 239. 246. 251. 238. 157. 0. 1. 0. 0. 0. 0. 2.
      1. 0. 0. 2. 10. 0. 104. 239. 255. 240. 255. 253. 247. 237. 255.
      255. 250. 255. 239. 255. 100. 0. 1. 0. 0. 0. 0. 1. 0. 3. 0. 0. 7.
      0. 4. 114. 255. 255. 255. 255. 247. 249. 253. 251. 254. 237. 251.
      89. 0. 0. 1. 0. 0. 0. 0. 0. 0. 9. 0. 0. 1. 13. 0. 14. 167. 255.
      246. 253. 255. 255. 254. 242. 255. 244. 61. 0. 19. 0. 1. 0. 0. 0.
      0. 2. 1. 7. 0. 0. 4. 0. 14. 0. 27. 61. 143. 255. 255. 252. 255.
      149. 21. 6. 16. 0. 0. 7. 0. 0. 0. 0. 0. 0. 0. 0. 0. 0. 0. 0. 0. 0.
      0. 0. 0. 0. 0. 0. 0. 0. 0. 0. 0. 0. 0. 0. 0. 0. 0. 0. 0. 0. 0. 0.
      0. 0. 0. 0. 0. 0. 0. 0. 0. 0. 0. 0. 0. 0. 0. 0. 0. 0. 0. 0. 0. 0.
      0. 0. 0. 0. 0. 0. 0. 0. 0. 0. 0. 0. 0. 0. 0. 0. 0. 0. 0. 0. 0. 0.
      0. 0. 0. 0. 0. 0. 0. 0. 0. 0. 0. 0. 0. 0. 0. 0. 0. 0. 0. 0. 0. 0.
      0. 0. 0. 0. 0. 0. 0. 0. 0. 0. 0. 0. 0. 0. 0.</_>
    <_>
      0. 4. 6. 0. 0. 0. 0. 0. 1. 0. 0. 3. 0. 2. 0. 3. 0. 2. 11. 6. 0. 0.
      3. 1. 0. 0. 0. 0. 0. 3. 3. 0. 0. 2. 3. 0. 9. 5. 11. 0. 9. 0. 2. 0.
      0. 3. 0. 0. 2. 4. 0. 0. 0. 0. 0. 0. 2. 2. 0. 0. 0. 3. 4. 2. 0. 0.
      0. 8. 0. 6. 0. 12. 4. 0. 14. 12. 0. 1. 10. 0. 0. 0. 0. 0. 2. 0. 0.
      0. 1. 3. 1. 0. 6. 0. 11. 0. 18. 0. 0. 0. 0. 0. 0. 0. 17. 0. 0. 16.
      0. 0. 0. 0. 0. 0. 0. 2. 2. 0. 0. 0. 0. 11. 22. 111. 171. 254. 255.
      255. 146. 47. 0. 7. 0. 0. 6. 2. 0. 0. 0. 0. 0. 0. 1. 4. 2. 0. 0.
      1. 4. 116. 243. 252. 255. 239. 255. 250. 255. 234. 126. 13. 0. 2.
      0. 0. 0. 0. 0. 0. 0. 0. 2. 3. 0. 0. 3. 14. 203. 249. 255. 255.
      244. 255. 253. 247. 254. 255. 230. 104. 2. 2. 20. 0. 0. 0. 0. 0.
      0. 0. 2. 2. 0. 0. 9. 26. 255. 248. 247. 250. 255. 248. 253. 255.
      245. 255. 255. 209. 108. 6. 0. 12. 0. 0. 0. 0. 9. 0. 3. 0. 0. 13.
      2. 219. 246. 255. 255. 253. 164. 218. 219. 241. 251. 246. 255.
      244. 255. 35. 10. 0. 9. 4. 0. 7. 0. 3. 7. 0. 16. 0. 138. 253. 253.
      250. 227. 66. 0. 6. 14. 74. 220. 255. 244. 245. 255. 199. 89. 15.
      0. 0. 0. 0. 0. 0. 0. 0. 1. 0. 232. 249. 249. 255. 190. 15. 0. 0.
      0. 11. 99. 231. 255. 248. 255. 255. 206. 17. 1. 5. 0. 0. 8. 0. 1.
      6. 0. 128. 255. 247. 247. 247. 67. 0. 1. 8. 0. 0. 0. 26. 189. 255.
      255. 255. 255. 207. 4. 6. 6. 0. 10. 0. 0. 9. 0. 246. 254. 255.
      255. 197. 6. 3. 0. 0. 2. 7. 8. 1. 40. 191. 249. 228. 255. 254. 6.
      0. 0. 0. 0. 0. 0. 0. 0. 255. 253. 252. 244. 103. 0. 3. 3. 7. 0. 2.
      1. 0. 1. 33. 227. 255. 241. 252. 47. 0. 2. 1. 4. 8. 7. 0. 5. 245.
      255. 252. 255. 94. 0. 0. 0. 8. 0. 1. 5. 4. 0. 4. 228. 240. 255.
      253. 106. 10. 2. 5. 0. 0. 5. 1. 0. 245. 255. 250. 237. 117. 0. 5.
      0. 0. 4. 0. 0. 4. 1. 0. 126. 246. 255. 243. 133. 7. 0. 0. 0. 0. 8.
      3. 0. 255. 245. 255. 255. 91. 9. 1. 0. 7. 0. 0. 0. 0. 7. 9. 138.
      249. 255. 249. 69. 27. 0. 0. 0. 13. 0. 0. 6. 249. 255. 255. 255.
      96. 1. 0. 3. 0. 20. 0. 20. 0. 8. 60. 244. 255. 254. 251. 19. 0. 0.
      0. 0. 0. 0. 3. 0. 255. 249. 241. 246. 197. 38. 9. 5. 0. 0. 11. 0.
      10. 26. 152. 255. 228. 254. 119. 0. 0. 0. 4. 14. 0. 10. 20. 0.
      189. 255. 246. 250. 255. 143. 0. 10. 5. 7. 0. 37. 133. 248. 245.
      239. 255. 150. 0. 2. 5. 5. 0. 0. 0. 1. 0. 0. 4. 218. 255. 255.
      246. 235. 218. 114. 94. 111. 199. 234. 246. 255. 236. 255. 219.
      31. 0. 0. 1. 0. 0. 7. 6. 8. 0. 15. 0. 75. 243. 255. 237. 255. 242.
      247. 246. 254. 249. 249. 255. 253. 248. 210. 26. 0. 5. 0. 0. 0. 0.
      2. 0. 0. 1. 1. 24. 0. 108. 239. 255. 249. 255. 252. 255. 249. 255.
      255. 237. 210. 88. 17. 0. 8. 6. 3. 2. 2. 4. 0. 9. 2. 0. 5. 0. 27.
      0. 31. 123. 215. 255. 251. 248. 246. 163. 127. 94. 10. 4. 0. 0. 0.
      1. 0. 0. 0. 1. 0. 0. 0. 0. 0. 0. 0. 0. 0. 0. 0. 0. 0. 0. 0. 0. 0.
      0. 0. 0. 0. 0. 0. 0. 0. 0. 0. 0. 0. 0. 0. 0. 0. 0. 0. 0. 0. 0. 0.
      0. 0. 0. 0. 0. 0. 0. 0. 0. 0. 0. 0. 0. 0. 0. 0. 0. 0. 0. 0. 0. 0.
      0. 0. 0. 0. 0. 0. 0. 0. 0. 0. 0. 0. 0. 0. 0. 0. 0. 0. 0. 0. 0. 0.
      0. 0. 0. 0. 0. 0. 0. 0. 0. 0. 0. 0. 0. 0. 0. 0. 0. 0. 0. 0. 0. 0.
      0. 0. 0. 0. 0. 0. 0.</_>
    <_>
      0. 0. 0. 0. 0. 0. 0. 0. 0. 3. 0. 6. 10. 0. 0. 6. 2. 0. 0. 6. 3. 0.
      8. 1. 0. 0. 0. 0. 0. 0. 0. 0. 0. 0. 0. 0. 8. 0. 0. 0. 0. 6. 9. 0.
      2. 8. 2. 4. 0. 0. 8. 0. 0. 0. 0. 0. 0. 0. 0. 0. 0. 0. 0. 0. 5. 11.
      0. 0. 8. 0. 8. 0. 0. 3. 0. 2. 0. 0. 6. 4. 0. 0. 0. 0. 0. 0. 0. 0.
      0. 0. 0. 0. 0. 10. 22. 0. 4. 6. 0. 15. 4. 0. 0. 4. 16. 1. 0. 0. 0.
      0. 0. 0. 0. 0. 0. 0. 0. 0. 0. 0. 0. 13. 0. 27. 86. 92. 96. 0. 2.
      16. 0. 0. 0. 0. 0. 10. 0. 0. 0. 0. 0. 0. 0. 0. 0. 0. 0. 0. 4. 0.
      17. 194. 251. 240. 255. 116. 146. 136. 61. 8. 6. 8. 5. 0. 0. 0. 0.
      0. 0. 0. 0. 0. 0. 0. 0. 0. 5. 4. 184. 255. 248. 255. 236. 250.
      250. 255. 247. 170. 83. 3. 0. 18. 0. 0. 0. 0. 0. 0. 0. 0. 0. 0. 0.
      0. 112. 212. 255. 246. 247. 255. 255. 251. 248. 252. 243. 255.
      234. 106. 8. 0. 0. 0. 0. 0. 2. 9. 0. 5. 6. 0. 0. 34. 255. 242.
      249. 255. 252. 255. 237. 255. 255. 255. 248. 246. 245. 255. 90. 6.
      0. 0. 0. 0. 0. 6. 0. 0. 0. 16. 60. 175. 241. 255. 255. 255. 215.
      236. 255. 247. 250. 243. 255. 255. 255. 255. 183. 11. 0. 0. 0. 0.
      22. 0. 3. 13. 0. 6. 244. 255. 253. 255. 232. 201. 65. 98. 130.
      155. 253. 255. 243. 242. 255. 245. 250. 108. 0. 0. 0. 0. 0. 0. 0.
      1. 16. 50. 255. 243. 253. 253. 255. 141. 1. 0. 0. 25. 142. 252.
      255. 242. 246. 251. 255. 74. 0. 0. 0. 0. 5. 8. 2. 8. 0. 175. 248.
      254. 250. 253. 246. 41. 9. 0. 0. 0. 20. 98. 203. 255. 245. 255.
      255. 94. 0. 0. 0. 0. 6. 0. 0. 0. 26. 207. 255. 246. 255. 237. 89.
      0. 0. 0. 15. 4. 3. 0. 41. 205. 255. 246. 247. 245. 0. 0. 0. 0. 0.
      21. 1. 0. 214. 239. 255. 250. 254. 187. 0. 19. 0. 9. 0. 0. 0. 9.
      0. 132. 255. 255. 244. 255. 0. 0. 0. 0. 16. 0. 0. 5. 245. 255.
      241. 255. 255. 139. 4. 0. 0. 1. 3. 0. 0. 0. 0. 131. 251. 255. 255.
      243. 0. 0. 0. 0. 0. 7. 4. 0. 255. 254. 243. 250. 250. 34. 10. 0.
      5. 13. 8. 0. 0. 4. 22. 137. 251. 249. 255. 242. 0. 0. 0. 0. 0. 0.
      0. 0. 255. 245. 253. 255. 255. 37. 0. 17. 0. 0. 0. 5. 10. 47. 224.
      255. 245. 255. 251. 255. 0. 0. 0. 0. 10. 0. 10. 10. 255. 245. 249.
      242. 254. 181. 42. 21. 52. 48. 45. 205. 192. 238. 251. 250. 255.
      255. 240. 120. 0. 0. 0. 0. 0. 0. 2. 0. 250. 253. 255. 253. 255.
      253. 246. 255. 249. 246. 244. 255. 255. 240. 240. 255. 250. 242.
      219. 50. 0. 0. 0. 0. 1. 16. 0. 0. 209. 244. 248. 251. 246. 255.
      240. 239. 255. 255. 244. 245. 244. 255. 250. 255. 244. 117. 34. 0.
      0. 0. 0. 0. 10. 0. 26. 4. 0. 78. 255. 255. 255. 251. 252. 247.
      255. 250. 255. 255. 248. 255. 255. 184. 70. 0. 0. 6. 0. 0. 0. 0.
      4. 12. 0. 0. 4. 14. 20. 29. 177. 186. 252. 255. 255. 241. 255.
      245. 255. 169. 147. 9. 0. 28. 0. 17. 0. 0. 0. 0. 0. 3. 0. 7. 1. 0.
      0. 4. 0. 33. 80. 87. 92. 96. 85. 98. 76. 0. 0. 7. 0. 0. 12. 0. 0.
      0. 0. 0. 0. 0. 0. 0. 0. 0. 0. 0. 0. 0. 0. 0. 0. 0. 0. 0. 0. 0. 0.
      0. 0. 0. 0. 0. 0. 0. 0. 0. 0. 0. 0. 0. 0. 0. 0. 0. 0. 0. 0. 0. 0.
      0. 0. 0. 0. 0. 0. 0. 0. 0. 0. 0. 0. 0. 0. 0. 0. 0. 0. 0. 0. 0. 0.
      0. 0. 0. 0. 0. 0. 0. 0. 0. 0. 0. 0. 0. 0. 0. 0. 0. 0. 0. 0. 0. 0.
      0. 0. 0. 0. 0. 0. 0. 0. 0. 0. 0. 0. 0. 0. 0. 0. 0. 0. 0. 0. 0. 0.
      0. 0. 0. 0. 0.</_>
    <_>
      0. 0. 0. 0. 0. 0. 0. 0. 0. 0. 8. 6. 0. 0. 4. 0. 6. 0. 0. 5. 0. 0.
      13. 0. 0. 0. 0. 0. 0. 0. 0. 0. 0. 0. 0. 0. 10. 0. 0. 0. 0. 0. 5.
      4. 0. 9. 0. 0. 15. 12. 1. 6. 0. 0. 0. 0. 0. 0. 0. 0. 0. 0. 0. 0.
      4. 0. 0. 5. 5. 0. 0. 0. 2. 0. 4. 1. 0. 0. 0. 0. 0. 0. 0. 0. 0. 0.
      0. 0. 0. 0. 0. 0. 0. 1. 6. 8. 7. 0. 0. 4. 13. 0. 1. 10. 0. 14. 22.
      0. 0. 0. 0. 0. 0. 0. 0. 0. 0. 0. 0. 0. 0. 8. 0. 0. 1. 4. 2. 7. 0.
      0. 13. 0. 0. 0. 0. 11. 0. 0. 0. 0. 0. 0. 0. 0. 0. 0. 0. 0. 1. 8.
      0. 0. 5. 2. 0. 0. 17. 0. 0. 0. 0. 12. 0. 2. 0. 0. 0. 0. 0. 0. 0.
      0. 0. 0. 0. 0. 0. 4. 0. 0. 10. 0. 6. 55. 154. 142. 194. 149. 41.
      1. 0. 0. 0. 0. 0. 0. 0. 0. 0. 0. 0. 0. 0. 0. 0. 4. 0. 2. 2. 0. 62.
      176. 255. 245. 255. 251. 222. 157. 40. 1. 0. 0. 0. 0. 3. 0. 0. 4.
      1. 2. 3. 0. 0. 16. 0. 0. 13. 0. 0. 54. 244. 241. 255. 252. 255.
      242. 252. 92. 0. 0. 0. 0. 0. 0. 1. 3. 0. 0. 2. 0. 4. 0. 0. 3. 1.
      0. 202. 216. 246. 203. 170. 201. 243. 255. 246. 132. 0. 0. 0. 0.
      0. 2. 3. 0. 0. 0. 0. 1. 6. 6. 3. 0. 111. 180. 255. 255. 255. 71.
      1. 17. 167. 193. 242. 137. 0. 0. 0. 0. 1. 4. 0. 0. 2. 2. 1. 4. 2.
      0. 8. 136. 212. 248. 209. 124. 159. 48. 0. 7. 5. 20. 196. 174. 0.
      0. 0. 0. 0. 1. 0. 1. 12. 2. 0. 1. 0. 25. 126. 248. 229. 174. 0.
      17. 0. 10. 3. 0. 0. 39. 255. 120. 0. 0. 0. 0. 0. 3. 0. 1. 4. 0. 0.
      21. 54. 219. 255. 226. 66. 0. 2. 0. 4. 0. 8. 0. 7. 149. 45. 112.
      0. 0. 0. 0. 1. 6. 0. 0. 0. 0. 39. 131. 240. 255. 146. 0. 0. 12. 5.
      2. 6. 0. 12. 4. 32. 186. 129. 0. 0. 0. 0. 0. 0. 4. 0. 0. 2. 22.
      127. 255. 255. 61. 0. 8. 3. 0. 0. 3. 0. 5. 1. 0. 178. 226. 0. 8.
      0. 0. 0. 0. 0. 0. 0. 3. 9. 105. 238. 255. 122. 25. 0. 0. 7. 2. 0.
      3. 1. 11. 0. 30. 208. 233. 0. 8. 0. 0. 0. 0. 3. 0. 9. 0. 112. 234.
      255. 137. 11. 0. 4. 3. 0. 1. 0. 0. 0. 0. 137. 230. 86. 32. 0. 0.
      0. 0. 0. 0. 6. 0. 0. 0. 114. 255. 158. 10. 3. 0. 10. 0. 0. 4. 6.
      0. 2. 186. 239. 151. 13. 3. 10. 6. 0. 0. 0. 0. 3. 0. 13. 6. 58.
      255. 138. 0. 9. 1. 0. 0. 5. 6. 0. 30. 111. 240. 196. 82. 0. 0. 0.
      0. 0. 0. 0. 0. 6. 0. 0. 0. 192. 222. 30. 9. 0. 1. 6. 7. 11. 0. 41.
      189. 206. 84. 7. 4. 0. 0. 8. 0. 0. 0. 0. 0. 0. 9. 9. 0. 132. 255.
      171. 69. 56. 62. 168. 167. 100. 185. 207. 56. 6. 2. 2. 0. 6. 10.
      0. 9. 0. 0. 0. 0. 0. 8. 0. 0. 48. 205. 255. 244. 232. 255. 255.
      217. 153. 81. 12. 0. 0. 0. 2. 0. 5. 6. 0. 3. 0. 0. 0. 0. 0. 0. 12.
      0. 2. 0. 97. 109. 115. 109. 71. 11. 0. 4. 0. 2. 8. 0. 0. 4. 0. 0.
      6. 0. 0. 0. 0. 0. 0. 0. 0. 0. 0. 0. 0. 0. 0. 0. 0. 0. 0. 0. 0. 0.
      0. 0. 0. 0. 0. 0. 0. 0. 0. 0. 0. 0. 0. 0. 0. 0. 0. 0. 0. 0. 0. 0.
      0. 0. 0. 0. 0. 0. 0. 0. 0. 0. 0. 0. 0. 0. 0. 0. 0. 0. 0. 0. 0. 0.
      0. 0. 0. 0. 0. 0. 0. 0. 0. 0. 0. 0. 0. 0. 0. 0. 0. 0. 0. 0. 0. 0.
      0. 0. 0. 0. 0. 0. 0. 0. 0. 0. 0. 0. 0. 0. 0. 0. 0. 0. 0. 0. 0. 0.
      0. 0. 0. 0. 0. 0. 0. 0.</_>
    <_>
      0. 0. 0. 0. 0. 0. 0. 0. 3. 3. 1. 7. 0. 12. 0. 1. 2. 0. 3. 0. 1. 6.
      0. 0. 0. 0. 0. 0. 0. 0. 0. 0. 0. 0. 0. 0. 0. 0. 4. 0. 23. 0. 0. 6.
      15. 0. 0. 8. 1. 0. 5. 9. 0. 0. 0. 0. 0. 0. 0. 0. 0. 0. 0. 0. 9.
      13. 3. 6. 0. 4. 11. 0. 0. 16. 13. 0. 2. 0. 15. 0. 0. 0. 0. 0. 0.
      0. 0. 0. 0. 0. 0. 0. 0. 0. 0. 11. 14. 0. 10. 0. 0. 12. 0. 0. 9. 4.
      0. 8. 0. 0. 0. 0. 0. 0. 0. 0. 0. 0. 0. 0. 0. 19. 1. 0. 0. 35. 97.
      158. 251. 174. 71. 19. 0. 17. 0. 6. 0. 0. 0. 0. 0. 0. 0. 0. 0. 0.
      0. 0. 9. 0. 19. 136. 118. 255. 255. 243. 255. 254. 252. 182. 16.
      0. 0. 0. 0. 0. 0. 0. 0. 0. 0. 0. 0. 0. 0. 0. 4. 0. 161. 255. 244.
      245. 245. 255. 246. 250. 254. 246. 126. 2. 8. 2. 0. 0. 0. 0. 0. 0.
      0. 0. 0. 0. 0. 0. 0. 155. 255. 251. 248. 224. 32. 1. 8. 185. 251.
      255. 194. 0. 0. 0. 0. 0. 0. 0. 0. 1. 8. 1. 0. 0. 5. 0. 0. 193.
      251. 255. 245. 17. 0. 2. 2. 16. 211. 253. 255. 20. 6. 1. 0. 0. 0.
      0. 2. 0. 0. 4. 4. 6. 5. 0. 37. 255. 252. 255. 133. 0. 9. 5. 0. 6.
      226. 249. 255. 131. 1. 0. 0. 0. 0. 0. 7. 0. 0. 2. 4. 0. 0. 0. 70.
      255. 248. 200. 33. 0. 6. 0. 0. 0. 178. 247. 255. 227. 0. 1. 0. 0.
      0. 0. 0. 3. 1. 0. 0. 0. 0. 7. 211. 255. 252. 76. 0. 3. 0. 2. 0. 1.
      72. 246. 255. 247. 2. 3. 0. 0. 0. 0. 0. 5. 2. 0. 3. 9. 5. 8. 255.
      249. 206. 0. 0. 0. 0. 6. 0. 2. 4. 245. 254. 250. 1. 3. 0. 0. 0. 0.
      0. 7. 0. 0. 10. 9. 0. 0. 239. 238. 138. 0. 25. 0. 0. 0. 0. 0. 6.
      242. 247. 255. 0. 0. 0. 0. 0. 0. 3. 6. 0. 0. 8. 0. 0. 26. 255.
      255. 127. 0. 6. 0. 8. 4. 3. 0. 12. 243. 249. 255. 5. 0. 0. 0. 0.
      0. 0. 0. 0. 1. 5. 0. 15. 97. 249. 243. 138. 1. 0. 5. 6. 0. 8. 0.
      0. 247. 255. 231. 14. 0. 0. 0. 0. 0. 0. 2. 0. 8. 0. 10. 0. 115.
      255. 237. 144. 0. 0. 11. 0. 2. 3. 0. 76. 253. 242. 141. 13. 0. 0.
      0. 0. 0. 5. 2. 0. 9. 0. 0. 0. 117. 255. 248. 128. 5. 5. 0. 6. 0.
      3. 9. 135. 245. 255. 145. 0. 11. 0. 0. 0. 0. 6. 0. 0. 10. 0. 0. 8.
      124. 243. 255. 133. 0. 19. 0. 2. 0. 0. 15. 203. 252. 204. 29. 0.
      0. 0. 0. 0. 0. 3. 0. 0. 7. 0. 4. 12. 96. 255. 248. 166. 0. 4. 8.
      0. 0. 13. 151. 254. 255. 189. 0. 8. 0. 0. 0. 0. 0. 0. 5. 0. 0. 0.
      1. 0. 34. 252. 255. 243. 71. 0. 0. 12. 0. 73. 241. 255. 241. 107.
      0. 3. 0. 0. 0. 0. 0. 0. 6. 2. 0. 0. 4. 0. 1. 189. 255. 255. 217.
      143. 47. 94. 178. 244. 255. 222. 151. 0. 3. 11. 0. 0. 0. 0. 0. 0.
      1. 0. 1. 5. 3. 4. 0. 26. 199. 252. 247. 249. 253. 255. 255. 255.
      195. 53. 0. 0. 22. 0. 0. 0. 0. 0. 0. 2. 1. 0. 2. 2. 0. 0. 0. 11.
      0. 135. 255. 251. 253. 206. 166. 85. 32. 0. 8. 8. 0. 11. 5. 0. 0.
      0. 0. 0. 0. 0. 0. 0. 0. 0. 0. 0. 0. 0. 0. 0. 0. 0. 0. 0. 0. 0. 0.
      0. 0. 0. 0. 0. 0. 0. 0. 0. 0. 0. 0. 0. 0. 0. 0. 0. 0. 0. 0. 0. 0.
      0. 0. 0. 0. 0. 0. 0. 0. 0. 0. 0. 0. 0. 0. 0. 0. 0. 0. 0. 0. 0. 0.
      0. 0. 0. 0. 0. 0. 0. 0. 0. 0. 0. 0. 0. 0. 0. 0. 0. 0. 0. 0. 0. 0.
      0. 0. 0. 0. 0. 0. 0. 0. 0. 0. 0. 0. 0. 0. 0. 0. 0. 0. 0. 0. 0. 0.
      0. 0. 0. 0.</_>
    <_>
      0. 0. 0. 0. 0. 0. 0. 0. 4. 0. 1. 0. 1. 2. 5. 0. 6. 0. 0. 3. 4. 0.
      0. 0. 0. 0. 0. 0. 0. 0. 0. 0. 0. 0. 0. 0. 0. 0. 2. 8. 4. 0. 0. 3.
      0. 4. 3. 0. 0. 7. 6. 0. 0. 0. 0. 0. 0. 0. 0. 0. 0. 0. 0. 0. 0. 23.
      0. 0. 20. 0. 13. 0. 0. 0. 6. 4. 0. 0. 0. 13. 0. 0. 0. 0. 0. 0. 0.
      0. 0. 0. 0. 0. 0. 0. 0. 0. 92. 253. 179. 18. 7. 0. 0. 0. 4. 9. 2.
      0. 0. 0. 0. 0. 0. 0. 0. 0. 0. 0. 0. 0. 2. 0. 13. 75. 229. 65. 40.
      0. 0. 7. 10. 0. 0. 10. 8. 0. 0. 0. 0. 0. 0. 0. 0. 0. 0. 0. 0. 0.
      5. 0. 55. 239. 107. 0. 5. 0. 12. 0. 0. 5. 1. 0. 0. 14. 0. 0. 0. 0.
      0. 0. 0. 0. 0. 0. 0. 0. 1. 0. 207. 226. 13. 4. 0. 179. 158. 68. 0.
      0. 12. 5. 0. 0. 0. 0. 0. 0. 0. 0. 0. 0. 0. 0. 0. 0. 0. 123. 242.
      112. 0. 0. 12. 161. 255. 219. 115. 9. 0. 0. 13. 0. 0. 0. 0. 0. 0.
      0. 2. 0. 9. 4. 0. 0. 15. 199. 220. 21. 0. 11. 4. 0. 37. 193. 255.
      176. 0. 9. 0. 4. 0. 0. 0. 0. 3. 1. 0. 0. 2. 4. 3. 3. 91. 239. 130.
      0. 0. 5. 1. 2. 7. 2. 110. 231. 163. 26. 0. 0. 0. 0. 0. 0. 1. 5. 0.
      0. 0. 2. 6. 1. 112. 249. 71. 10. 3. 0. 0. 5. 0. 8. 0. 75. 241.
      183. 6. 0. 0. 0. 0. 0. 0. 5. 0. 6. 0. 0. 0. 8. 206. 222. 1. 0. 9.
      6. 0. 4. 2. 8. 0. 0. 90. 234. 54. 11. 0. 0. 0. 0. 0. 3. 0. 7. 0.
      0. 0. 58. 255. 160. 0. 0. 0. 0. 3. 1. 6. 0. 13. 13. 0. 228. 137.
      0. 0. 0. 0. 0. 4. 0. 0. 2. 0. 4. 6. 143. 232. 70. 18. 8. 5. 0. 0.
      0. 0. 13. 1. 0. 2. 208. 200. 0. 0. 0. 0. 0. 6. 0. 3. 1. 0. 7. 3.
      217. 208. 8. 0. 0. 8. 10. 10. 0. 1. 0. 0. 7. 0. 141. 222. 14. 0.
      0. 0. 0. 3. 0. 8. 4. 0. 6. 0. 250. 161. 0. 9. 0. 3. 0. 0. 7. 0. 9.
      3. 0. 15. 199. 231. 5. 0. 0. 0. 0. 0. 0. 0. 3. 7. 4. 0. 238. 130.
      0. 6. 7. 0. 11. 0. 5. 0. 0. 4. 10. 7. 216. 177. 0. 0. 0. 0. 0. 5.
      1. 0. 0. 0. 0. 2. 242. 135. 11. 0. 0. 12. 0. 10. 0. 5. 19. 0. 0.
      102. 255. 29. 11. 0. 0. 0. 0. 3. 0. 0. 2. 0. 0. 14. 221. 191. 0.
      0. 12. 0. 0. 6. 0. 0. 2. 0. 40. 208. 192. 16. 0. 0. 0. 0. 0. 0. 0.
      3. 5. 3. 2. 4. 137. 246. 65. 0. 22. 0. 30. 0. 0. 12. 0. 0. 157.
      247. 50. 0. 5. 0. 0. 0. 0. 0. 6. 4. 0. 0. 0. 0. 34. 220. 223. 15.
      0. 0. 0. 0. 7. 1. 21. 144. 250. 95. 6. 1. 0. 0. 0. 0. 0. 1. 6. 0.
      0. 0. 5. 0. 0. 105. 239. 171. 69. 73. 37. 47. 61. 114. 216. 216.
      113. 11. 8. 0. 10. 0. 0. 0. 0. 1. 0. 0. 3. 1. 4. 14. 0. 14. 125.
      255. 238. 241. 250. 247. 255. 253. 188. 74. 0. 0. 0. 10. 0. 0. 0.
      0. 0. 4. 0. 0. 12. 0. 0. 9. 0. 0. 0. 2. 2. 3. 5. 0. 0. 4. 0. 0.
      11. 0. 10. 14. 0. 0. 0. 0. 0. 0. 0. 0. 0. 0. 0. 0. 0. 0. 0. 0. 0.
      0. 0. 0. 0. 0. 0. 0. 0. 0. 0. 0. 0. 0. 0. 0. 0. 0. 0. 0. 0. 0. 0.
      0. 0. 0. 0. 0. 0. 0. 0. 0. 0. 0. 0. 0. 0. 0. 0. 0. 0. 0. 0. 0. 0.
      0. 0. 0. 0. 0. 0. 0. 0. 0. 0. 0. 0. 0. 0. 0. 0. 0. 0. 0. 0. 0. 0.
      0. 0. 0. 0. 0. 0. 0. 0. 0. 0. 0. 0. 0. 0. 0. 0. 0. 0. 0. 0. 0. 0.
      0. 0. 0. 0. 0. 0. 0. 0. 0. 0. 0. 0.</_>
    <_>
      0. 0. 0. 0. 0. 0. 0. 0. 4. 4. 0. 0. 6. 6. 0. 0. 2. 0. 0. 4. 6. 0.
      0. 5. 0. 0. 0. 0. 0. 0. 0. 0. 0. 0. 0. 0. 0. 4. 11. 1. 0. 0. 0. 0.
      3. 2. 1. 0. 0. 0. 0. 3. 0. 0. 0. 0. 0. 0. 0. 0. 0. 0. 0. 0. 6. 0.
      0. 0. 0. 5. 15. 10. 0. 3. 7. 2. 0. 0. 0. 0. 0. 0. 0. 0. 0. 0. 0.
      0. 0. 0. 0. 0. 10. 0. 0. 10. 4. 0. 0. 0. 0. 0. 0. 2. 3. 4. 5. 6.
      0. 0. 0. 0. 0. 0. 0. 0. 0. 0. 0. 0. 2. 0. 1. 7. 2. 0. 0. 5. 12. 0.
      0. 0. 0. 0. 0. 0. 0. 0. 0. 0. 0. 0. 0. 0. 0. 0. 0. 0. 1. 8. 0. 0.
      3. 10. 0. 0. 0. 0. 0. 8. 12. 9. 6. 5. 0. 0. 0. 0. 0. 0. 0. 0. 0.
      0. 0. 0. 0. 6. 0. 0. 14. 0. 0. 25. 21. 29. 19. 0. 0. 0. 0. 0. 0.
      0. 0. 0. 0. 0. 0. 0. 0. 0. 0. 0. 0. 5. 0. 0. 3. 0. 75. 237. 255.
      244. 170. 59. 0. 0. 8. 2. 0. 0. 0. 0. 6. 0. 0. 10. 0. 0. 6. 4. 0.
      3. 7. 3. 0. 0. 212. 241. 255. 252. 246. 245. 132. 0. 15. 0. 0. 4.
      0. 5. 3. 6. 0. 0. 0. 18. 0. 0. 10. 0. 0. 15. 58. 97. 241. 255.
      252. 255. 255. 251. 248. 137. 15. 2. 9. 4. 0. 1. 0. 11. 0. 0. 2.
      12. 0. 15. 17. 140. 220. 238. 239. 255. 251. 242. 253. 69. 46.
      166. 255. 255. 226. 90. 0. 0. 5. 0. 0. 2. 0. 9. 1. 0. 34. 123.
      217. 255. 235. 255. 255. 250. 255. 206. 100. 7. 1. 118. 239. 249.
      255. 193. 0. 0. 15. 0. 7. 0. 0. 11. 0. 7. 164. 251. 255. 160. 111.
      13. 0. 165. 250. 141. 0. 0. 4. 1. 157. 240. 248. 254. 74. 0. 4. 0.
      3. 0. 0. 7. 0. 82. 247. 255. 207. 0. 7. 1. 0. 151. 255. 134. 5. 4.
      14. 0. 0. 63. 230. 255. 198. 12. 0. 0. 0. 0. 0. 6. 1. 172. 255.
      228. 44. 1. 0. 19. 0. 14. 222. 145. 0. 5. 0. 11. 10. 0. 219. 250.
      238. 11. 0. 0. 3. 3. 0. 5. 3. 236. 255. 242. 40. 7. 0. 0. 12. 0.
      52. 156. 33. 0. 3. 2. 0. 27. 241. 255. 195. 0. 12. 0. 0. 12. 0. 0.
      6. 251. 247. 255. 71. 0. 0. 11. 0. 0. 14. 0. 0. 3. 5. 0. 83. 226.
      255. 210. 63. 23. 0. 0. 6. 1. 1. 4. 0. 252. 242. 244. 101. 6. 0.
      9. 0. 0. 0. 9. 0. 29. 108. 184. 248. 255. 154. 44. 16. 0. 0. 0. 0.
      0. 6. 0. 7. 130. 255. 255. 255. 149. 100. 48. 20. 36. 50. 111.
      159. 197. 255. 255. 180. 82. 5. 0. 0. 0. 0. 0. 0. 0. 6. 0. 6. 11.
      201. 233. 248. 252. 255. 244. 246. 255. 245. 245. 247. 255. 233.
      104. 8. 9. 16. 5. 1. 4. 3. 0. 11. 0. 8. 2. 0. 12. 27. 101. 197.
      255. 255. 249. 254. 255. 247. 208. 120. 40. 5. 4. 0. 0. 0. 12. 0.
      0. 0. 0. 0. 2. 7. 0. 0. 9. 0. 6. 0. 30. 16. 28. 33. 18. 31. 0. 0.
      0. 2. 5. 5. 11. 1. 0. 0. 0. 0. 0. 0. 7. 3. 0. 9. 0. 20. 0. 5. 12.
      0. 0. 0. 0. 7. 0. 10. 0. 0. 2. 0. 2. 0. 7. 4. 3. 3. 6. 10. 0. 0.
      11. 0. 8. 1. 0. 0. 0. 2. 4. 2. 7. 4. 0. 0. 0. 8. 0. 0. 7. 4. 0. 0.
      0. 0. 1. 0. 0. 0. 0. 0. 0. 0. 0. 0. 0. 0. 0. 0. 0. 0. 0. 0. 0. 0.
      0. 0. 0. 0. 0. 0. 0. 0. 0. 0. 0. 0. 0. 0. 0. 0. 0. 0. 0. 0. 0. 0.
      0. 0. 0. 0. 0. 0. 0. 0. 0. 0. 0. 0. 0. 0. 0. 0. 0. 0. 0. 0. 0. 0.
      0. 0. 0. 0. 0. 0. 0. 0. 0. 0. 0. 0. 0. 0. 0. 0. 0. 0. 0. 0. 0. 0.
      0. 0. 0. 0. 0. 0. 0. 0. 0. 0. 0. 0. 0. 0. 0. 0. 0. 0. 0. 0. 0. 0.
      0. 0. 0. 0. 0.</_>
    <_>
      0. 0. 0. 0. 0. 0. 0. 0. 3. 4. 0. 0. 10. 0. 0. 4. 0. 0. 10. 0. 0.
      7. 0. 0. 0. 0. 0. 0. 0. 0. 0. 0. 0. 0. 0. 0. 0. 11. 5. 7. 0. 3. 0.
      0. 0. 21. 0. 19. 7. 0. 9. 5. 0. 0. 0. 0. 0. 0. 0. 0. 0. 0. 0. 0.
      13. 0. 0. 0. 8. 7. 4. 0. 0. 22. 0. 0. 2. 5. 0. 0. 0. 0. 0. 0. 0.
      0. 0. 0. 0. 0. 0. 0. 0. 0. 14. 4. 0. 0. 9. 1. 10. 0. 12. 15. 0. 0.
      9. 1. 0. 0. 0. 0. 0. 0. 0. 0. 0. 0. 0. 0. 1. 0. 0. 0. 48. 157.
      255. 255. 229. 164. 0. 1. 10. 0. 7. 0. 0. 0. 0. 0. 0. 0. 0. 0. 0.
      0. 0. 0. 8. 11. 0. 107. 147. 255. 246. 249. 249. 221. 17. 0. 0.
      15. 0. 5. 0. 0. 0. 0. 0. 0. 0. 0. 0. 0. 0. 0. 0. 47. 213. 242.
      255. 117. 81. 46. 201. 213. 234. 213. 51. 8. 5. 0. 0. 0. 0. 0. 0.
      0. 0. 0. 0. 0. 0. 0. 97. 226. 255. 249. 107. 34. 0. 18. 202. 255.
      255. 255. 221. 0. 0. 15. 0. 0. 0. 0. 7. 0. 0. 15. 0. 7. 0. 7. 167.
      249. 250. 126. 6. 4. 0. 9. 118. 223. 246. 255. 255. 145. 0. 12. 0.
      0. 0. 0. 3. 0. 2. 0. 0. 5. 16. 0. 144. 250. 70. 12. 11. 0. 0. 0.
      4. 167. 251. 255. 246. 249. 67. 0. 0. 0. 0. 0. 2. 0. 4. 0. 3. 0.
      2. 87. 223. 255. 13. 0. 16. 0. 0. 0. 0. 32. 185. 255. 255. 236.
      111. 9. 0. 0. 0. 0. 2. 0. 1. 5. 11. 0. 6. 219. 255. 176. 23. 8. 0.
      2. 1. 8. 0. 18. 159. 230. 250. 255. 219. 44. 0. 0. 0. 0. 1. 3. 2.
      0. 2. 18. 121. 255. 225. 29. 4. 5. 0. 13. 3. 0. 17. 0. 56. 255.
      255. 255. 239. 121. 0. 0. 0. 0. 2. 0. 7. 0. 0. 31. 250. 252. 157.
      0. 0. 6. 0. 0. 0. 0. 0. 0. 13. 230. 239. 246. 255. 128. 0. 0. 0.
      0. 3. 0. 3. 11. 2. 97. 255. 246. 58. 3. 0. 3. 0. 0. 0. 11. 1. 4.
      16. 163. 248. 242. 255. 142. 0. 0. 0. 0. 2. 8. 0. 0. 10. 214. 249.
      232. 17. 4. 0. 2. 0. 9. 0. 0. 0. 2. 0. 155. 250. 255. 248. 161. 0.
      0. 0. 0. 0. 0. 4. 3. 0. 249. 245. 163. 2. 0. 4. 0. 14. 0. 0. 5. 0.
      11. 8. 161. 255. 255. 228. 37. 0. 0. 0. 0. 12. 10. 0. 0. 175. 250.
      255. 126. 8. 0. 9. 4. 0. 10. 12. 1. 16. 0. 127. 255. 255. 248.
      110. 2. 0. 0. 0. 0. 0. 0. 5. 9. 243. 255. 246. 234. 28. 0. 0. 6.
      14. 0. 0. 2. 0. 117. 255. 254. 236. 216. 37. 8. 0. 0. 0. 0. 1. 0.
      5. 6. 255. 248. 255. 239. 161. 28. 0. 0. 4. 0. 12. 16. 128. 217.
      250. 225. 156. 0. 11. 1. 0. 0. 0. 0. 7. 0. 9. 1. 94. 246. 246.
      255. 246. 229. 150. 47. 27. 15. 54. 159. 250. 255. 237. 44. 1. 4.
      0. 0. 0. 0. 0. 0. 0. 7. 0. 0. 15. 39. 238. 252. 255. 247. 245.
      255. 241. 255. 253. 255. 255. 211. 53. 0. 7. 12. 0. 22. 0. 0. 0.
      0. 8. 0. 0. 13. 2. 0. 68. 106. 241. 239. 255. 253. 251. 245. 250.
      249. 161. 50. 0. 13. 0. 0. 0. 0. 0. 0. 0. 0. 0. 8. 6. 0. 14. 0. 0.
      0. 0. 45. 222. 159. 123. 62. 100. 0. 0. 4. 1. 4. 5. 1. 5. 0. 0. 0.
      0. 0. 0. 0. 0. 0. 0. 0. 0. 0. 0. 0. 0. 0. 0. 0. 0. 0. 0. 0. 0. 0.
      0. 0. 0. 0. 0. 0. 0. 0. 0. 0. 0. 0. 0. 0. 0. 0. 0. 0. 0. 0. 0. 0.
      0. 0. 0. 0. 0. 0. 0. 0. 0. 0. 0. 0. 0. 0. 0. 0. 0. 0. 0. 0. 0. 0.
      0. 0. 0. 0. 0. 0. 0. 0. 0. 0. 0. 0. 0. 0. 0. 0. 0. 0. 0. 0. 0. 0.
      0. 0. 0. 0. 0. 0. 0. 0. 0. 0. 0. 0. 0. 0. 0. 0. 0. 0. 0. 0. 0. 0.
      0. 0. 0. 0.</_>
    <_>
      0. 0. 0. 0. 0. 0. 0. 0. 0. 6. 1. 0. 0. 7. 1. 0. 2. 0. 2. 2. 0. 5.
      0. 5. 0. 0. 0. 0. 0. 0. 0. 0. 0. 0. 0. 0. 0. 2. 3. 2. 2. 2. 2. 2.
      6. 0. 0. 0. 18. 0. 0. 0. 0. 0. 0. 0. 0. 0. 0. 0. 0. 0. 0. 0. 8. 0.
      1. 5. 0. 0. 0. 0. 4. 12. 7. 8. 0. 3. 6. 5. 0. 0. 0. 0. 0. 0. 0. 0.
      0. 0. 0. 0. 10. 0. 0. 1. 0. 0. 4. 0. 0. 0. 4. 0. 10. 0. 14. 0. 0.
      0. 0. 0. 0. 0. 0. 0. 0. 0. 0. 0. 0. 0. 0. 0. 3. 9. 5. 0. 8. 12.
      54. 255. 255. 235. 92. 4. 0. 0. 0. 0. 0. 0. 0. 0. 0. 0. 0. 0. 0.
      5. 2. 0. 4. 0. 0. 7. 5. 155. 246. 247. 242. 255. 195. 0. 0. 0. 0.
      0. 0. 0. 0. 0. 0. 0. 0. 0. 0. 11. 2. 0. 2. 0. 15. 92. 201. 252.
      248. 252. 237. 255. 182. 1. 0. 0. 0. 0. 0. 0. 0. 0. 0. 0. 0. 0. 0.
      7. 0. 0. 7. 0. 66. 204. 245. 250. 251. 218. 249. 247. 242. 84. 0.
      0. 0. 0. 0. 0. 10. 0. 4. 4. 0. 10. 8. 0. 0. 14. 0. 96. 255. 240.
      255. 197. 103. 83. 255. 254. 203. 41. 0. 0. 0. 0. 8. 0. 0. 0. 0.
      6. 11. 0. 0. 3. 0. 57. 230. 244. 255. 245. 70. 8. 4. 161. 250.
      255. 183. 0. 0. 0. 0. 0. 1. 6. 0. 6. 8. 0. 6. 7. 0. 24. 31. 148.
      240. 255. 253. 104. 27. 0. 2. 246. 249. 255. 186. 6. 0. 0. 0. 0.
      0. 0. 1. 12. 0. 0. 8. 0. 0. 82. 255. 248. 238. 255. 251. 53. 0. 3.
      6. 255. 255. 234. 196. 1. 0. 0. 0. 0. 4. 0. 14. 0. 0. 14. 14. 0.
      41. 243. 238. 255. 255. 240. 128. 16. 0. 0. 0. 242. 251. 252. 195.
      1. 0. 0. 0. 0. 0. 7. 5. 0. 6. 2. 0. 66. 218. 255. 254. 239. 247.
      148. 3. 0. 11. 10. 0. 255. 255. 248. 184. 0. 0. 0. 0. 0. 0. 12. 0.
      0. 18. 0. 53. 210. 238. 255. 251. 255. 114. 19. 0. 0. 0. 0. 154.
      255. 232. 225. 22. 0. 0. 0. 0. 0. 4. 0. 5. 18. 0. 40. 209. 255.
      255. 255. 229. 125. 20. 0. 4. 0. 14. 176. 237. 255. 229. 45. 0. 0.
      0. 0. 0. 0. 0. 12. 0. 0. 5. 114. 244. 255. 250. 208. 35. 0. 0. 0.
      8. 99. 185. 255. 249. 255. 234. 53. 22. 0. 0. 0. 0. 0. 0. 0. 0. 8.
      94. 230. 251. 253. 255. 114. 7. 0. 0. 15. 110. 237. 252. 252. 244.
      222. 178. 12. 0. 8. 0. 0. 0. 0. 6. 0. 0. 0. 189. 255. 246. 244.
      135. 0. 4. 5. 54. 144. 249. 255. 237. 255. 254. 66. 0. 0. 1. 0. 0.
      0. 0. 0. 0. 7. 0. 0. 255. 239. 255. 255. 174. 148. 250. 255. 247.
      235. 255. 245. 255. 143. 68. 0. 5. 16. 3. 8. 0. 0. 0. 0. 0. 11. 0.
      0. 255. 236. 255. 245. 244. 247. 255. 248. 255. 247. 247. 195. 63.
      14. 6. 0. 0. 0. 0. 0. 0. 0. 0. 0. 0. 3. 0. 0. 176. 255. 255. 255.
      249. 255. 246. 239. 249. 174. 90. 0. 0. 0. 0. 15. 14. 1. 7. 1. 0.
      0. 0. 0. 0. 0. 0. 1. 75. 196. 228. 253. 255. 234. 255. 237. 144.
      4. 0. 2. 1. 8. 1. 0. 0. 5. 4. 0. 0. 0. 0. 0. 1. 1. 0. 13. 0. 12.
      105. 131. 245. 104. 89. 42. 8. 0. 19. 0. 0. 0. 11. 1. 0. 7. 0. 6.
      0. 0. 0. 0. 0. 0. 0. 0. 0. 0. 0. 0. 0. 0. 0. 0. 0. 0. 0. 0. 0. 0.
      0. 0. 0. 0. 0. 0. 0. 0. 0. 0. 0. 0. 0. 0. 0. 0. 0. 0. 0. 0. 0. 0.
      0. 0. 0. 0. 0. 0. 0. 0. 0. 0. 0. 0. 0. 0. 0. 0. 0. 0. 0. 0. 0. 0.
      0. 0. 0. 0. 0. 0. 0. 0. 0. 0. 0. 0. 0. 0. 0. 0. 0. 0. 0. 0. 0. 0.
      0. 0. 0. 0. 0. 0. 0. 0. 0. 0. 0. 0. 0. 0. 0. 0. 0. 0. 0. 0. 0. 0.
      0. 0. 0. 0. 0. 0.</_>
    <_>
      0. 0. 0. 0. 0. 0. 0. 0. 0. 0. 5. 10. 0. 7. 0. 0. 0. 3. 1. 0. 2. 8.
      0. 2. 0. 0. 0. 0. 0. 0. 0. 0. 0. 0. 0. 0. 5. 0. 0. 0. 0. 0. 0. 12.
      12. 0. 3. 18. 0. 0. 0. 0. 0. 0. 0. 0. 0. 0. 0. 0. 0. 0. 0. 0. 6.
      4. 0. 0. 6. 12. 0. 0. 4. 4. 4. 2. 0. 22. 1. 0. 0. 0. 0. 0. 0. 0.
      0. 0. 0. 0. 0. 0. 0. 2. 15. 11. 0. 0. 0. 0. 0. 0. 7. 0. 0. 0. 0.
      14. 0. 0. 0. 0. 0. 0. 0. 0. 0. 0. 0. 0. 9. 0. 0. 1. 0. 62. 163.
      255. 255. 68. 3. 0. 13. 0. 7. 0. 0. 0. 0. 0. 0. 0. 0. 0. 0. 0. 0.
      0. 0. 0. 0. 0. 26. 153. 229. 255. 242. 67. 0. 0. 18. 0. 4. 0. 0.
      0. 0. 0. 0. 0. 0. 0. 0. 0. 0. 0. 0. 5. 0. 0. 133. 248. 255. 243.
      255. 158. 55. 0. 0. 6. 0. 2. 0. 0. 0. 0. 0. 0. 0. 0. 0. 0. 0. 0.
      7. 0. 0. 30. 233. 255. 246. 255. 255. 235. 229. 182. 20. 0. 0. 1.
      0. 0. 0. 0. 0. 0. 0. 0. 0. 0. 0. 0. 7. 0. 9. 141. 233. 255. 170.
      164. 127. 134. 255. 243. 182. 23. 0. 5. 0. 0. 0. 0. 0. 0. 0. 0. 0.
      0. 0. 0. 3. 0. 41. 242. 253. 207. 67. 73. 11. 1. 127. 255. 255.
      37. 0. 0. 0. 0. 0. 0. 0. 0. 0. 0. 0. 0. 0. 0. 0. 14. 147. 248.
      255. 109. 7. 0. 0. 3. 58. 219. 244. 28. 17. 2. 0. 0. 0. 0. 0. 0.
      0. 0. 0. 0. 0. 0. 2. 110. 232. 255. 223. 78. 0. 0. 11. 0. 9. 209.
      255. 26. 2. 0. 0. 0. 0. 0. 0. 0. 0. 0. 0. 0. 0. 0. 6. 110. 255.
      253. 183. 6. 0. 9. 0. 0. 56. 237. 255. 28. 0. 7. 0. 0. 0. 0. 0. 0.
      0. 0. 0. 0. 0. 0. 0. 137. 231. 254. 39. 0. 0. 0. 0. 12. 123. 245.
      244. 39. 0. 11. 0. 0. 0. 0. 0. 0. 0. 0. 0. 0. 0. 0. 25. 207. 255.
      166. 0. 0. 18. 0. 2. 0. 133. 255. 255. 47. 0. 0. 0. 0. 0. 0. 0. 0.
      0. 0. 0. 0. 0. 0. 32. 255. 255. 102. 4. 2. 0. 2. 3. 85. 245. 255.
      196. 13. 12. 0. 0. 0. 0. 0. 0. 0. 0. 0. 0. 0. 0. 0. 30. 255. 255.
      100. 12. 0. 0. 0. 2. 187. 248. 255. 111. 0. 3. 6. 0. 0. 0. 0. 0.
      0. 0. 0. 0. 0. 0. 0. 28. 255. 255. 94. 19. 0. 0. 16. 0. 204. 253.
      202. 7. 10. 0. 0. 0. 0. 0. 0. 0. 0. 0. 0. 0. 0. 0. 0. 23. 239.
      249. 158. 0. 5. 8. 0. 98. 236. 253. 81. 0. 4. 0. 11. 0. 0. 0. 0.
      0. 0. 0. 0. 0. 0. 0. 0. 9. 118. 255. 244. 35. 0. 0. 114. 255. 251.
      253. 47. 1. 0. 22. 0. 0. 0. 0. 0. 0. 0. 0. 0. 0. 0. 0. 0. 3. 118.
      252. 241. 192. 34. 101. 241. 255. 239. 132. 9. 0. 6. 0. 1. 0. 0.
      0. 0. 0. 0. 0. 0. 0. 0. 0. 0. 0. 130. 241. 253. 255. 170. 251.
      255. 254. 122. 1. 4. 0. 10. 7. 0. 0. 0. 0. 0. 0. 0. 0. 0. 0. 0. 0.
      0. 0. 2. 178. 255. 240. 255. 251. 255. 216. 71. 0. 0. 29. 0. 0. 4.
      0. 0. 0. 0. 0. 0. 0. 0. 0. 0. 0. 0. 7. 0. 14. 175. 252. 250. 255.
      133. 59. 0. 8. 2. 0. 0. 7. 0. 0. 0. 0. 0. 0. 0. 0. 0. 0. 0. 0. 0.
      0. 0. 0. 0. 0. 0. 0. 0. 0. 0. 0. 0. 0. 0. 0. 0. 0. 0. 0. 0. 0. 0.
      0. 0. 0. 0. 0. 0. 0. 0. 0. 0. 0. 0. 0. 0. 0. 0. 0. 0. 0. 0. 0. 0.
      0. 0. 0. 0. 0. 0. 0. 0. 0. 0. 0. 0. 0. 0. 0. 0. 0. 0. 0. 0. 0. 0.
      0. 0. 0. 0. 0. 0. 0. 0. 0. 0. 0. 0. 0. 0. 0. 0. 0. 0. 0. 0. 0. 0.
      0. 0. 0. 0. 0. 0. 0. 0. 0. 0. 0. 0. 0. 0. 0. 0.</_>
    <_>
      0. 0. 0. 0. 0. 0. 0. 0. 0. 0. 0. 0. 0. 0. 0. 0. 10. 0. 8. 0. 11.
      0. 0. 5. 0. 0. 0. 0. 0. 0. 0. 0. 0. 0. 0. 0. 0. 0. 0. 0. 0. 0. 0.
      0. 0. 0. 0. 8. 0. 0. 4. 0. 0. 0. 0. 0. 0. 0. 0. 0. 0. 0. 0. 0. 0.
      0. 0. 0. 0. 0. 0. 0. 5. 4. 4. 0. 9. 25. 0. 21. 0. 0. 0. 0. 0. 0.
      0. 0. 0. 0. 0. 0. 0. 0. 0. 0. 0. 0. 0. 0. 0. 10. 5. 0. 1. 0. 11.
      0. 0. 0. 0. 0. 0. 0. 0. 0. 0. 0. 0. 0. 0. 0. 0. 0. 0. 0. 0. 0. 1.
      0. 0. 23. 176. 252. 97. 21. 0. 0. 0. 0. 0. 0. 0. 0. 0. 0. 0. 0. 0.
      0. 0. 0. 0. 0. 0. 0. 3. 0. 14. 190. 254. 248. 103. 0. 0. 0. 0. 0.
      0. 0. 0. 0. 0. 0. 0. 0. 0. 0. 0. 0. 0. 0. 0. 0. 0. 7. 111. 242.
      255. 162. 5. 0. 0. 0. 0. 0. 0. 0. 0. 0. 0. 0. 0. 0. 0. 0. 0. 0. 0.
      0. 0. 0. 2. 77. 250. 255. 196. 21. 0. 5. 0. 0. 0. 0. 0. 0. 0. 0.
      0. 0. 0. 0. 0. 3. 2. 3. 7. 0. 0. 5. 31. 200. 251. 242. 76. 0. 0.
      0. 0. 0. 0. 0. 0. 0. 0. 0. 0. 0. 0. 0. 3. 0. 10. 0. 2. 8. 8. 51.
      216. 248. 255. 75. 5. 14. 0. 9. 0. 0. 0. 0. 0. 0. 0. 0. 0. 0. 0.
      0. 0. 6. 11. 3. 0. 10. 85. 255. 250. 242. 177. 12. 4. 0. 0. 0. 0.
      0. 0. 0. 0. 0. 0. 0. 0. 0. 0. 0. 32. 0. 4. 5. 0. 29. 207. 251.
      244. 161. 0. 0. 14. 0. 13. 0. 0. 0. 0. 0. 0. 0. 0. 0. 0. 0. 0. 0.
      0. 10. 0. 0. 25. 202. 255. 255. 241. 101. 0. 9. 0. 4. 0. 1. 0. 0.
      0. 0. 0. 0. 0. 0. 0. 0. 0. 0. 0. 0. 0. 9. 26. 245. 252. 248. 26.
      0. 5. 2. 0. 1. 2. 6. 0. 0. 0. 0. 0. 0. 0. 0. 0. 0. 0. 0. 9. 0. 5.
      17. 205. 250. 255. 199. 5. 0. 4. 1. 6. 7. 23. 0. 0. 0. 0. 0. 0. 0.
      0. 0. 0. 0. 0. 0. 0. 8. 5. 163. 255. 242. 207. 3. 2. 1. 0. 0. 2.
      0. 0. 4. 0. 0. 0. 0. 3. 0. 8. 0. 0. 7. 2. 0. 0. 2. 31. 186. 255.
      255. 52. 9. 0. 0. 0. 0. 0. 0. 0. 0. 0. 0. 0. 0. 4. 0. 4. 2. 0. 0.
      0. 5. 6. 25. 171. 255. 246. 91. 14. 0. 0. 0. 0. 0. 0. 0. 0. 0. 0.
      0. 0. 0. 0. 0. 1. 0. 0. 6. 0. 3. 7. 92. 255. 253. 176. 2. 11. 0.
      0. 0. 0. 0. 0. 0. 0. 0. 0. 0. 0. 0. 0. 0. 4. 0. 0. 15. 0. 0. 85.
      237. 255. 193. 26. 6. 0. 7. 0. 0. 0. 0. 0. 0. 0. 0. 0. 0. 0. 0. 0.
      1. 5. 0. 0. 0. 0. 23. 223. 252. 255. 71. 3. 0. 3. 4. 0. 0. 0. 0.
      0. 0. 0. 0. 0. 0. 0. 0. 0. 0. 2. 8. 5. 0. 6. 88. 255. 255. 242.
      114. 0. 18. 4. 0. 0. 0. 0. 0. 0. 0. 0. 0. 0. 0. 0. 0. 0. 0. 1. 5.
      10. 0. 8. 83. 237. 255. 252. 123. 0. 0. 4. 1. 0. 0. 0. 0. 0. 0. 0.
      0. 0. 0. 0. 0. 0. 11. 5. 0. 2. 3. 0. 11. 224. 209. 91. 7. 0. 1. 0.
      3. 0. 0. 0. 0. 0. 0. 0. 0. 0. 0. 0. 0. 0. 0. 0. 0. 0. 0. 0. 0. 0.
      0. 0. 0. 0. 0. 0. 0. 0. 0. 0. 0. 0. 0. 0. 0. 0. 0. 0. 0. 0. 0. 0.
      0. 0. 0. 0. 0. 0. 0. 0. 0. 0. 0. 0. 0. 0. 0. 0. 0. 0. 0. 0. 0. 0.
      0. 0. 0. 0. 0. 0. 0. 0. 0. 0. 0. 0. 0. 0. 0. 0. 0. 0. 0. 0. 0. 0.
      0. 0. 0. 0. 0. 0. 0. 0. 0. 0. 0. 0. 0. 0. 0. 0. 0. 0. 0. 0. 0. 0.
      0. 0. 0. 0. 0. 0. 0. 0. 0. 0. 0. 0. 0. 0. 0.</_>
    <_>
      0. 0. 0. 0. 0. 0. 0. 0. 1. 0. 6. 0. 8. 0. 8. 0. 0. 0. 0. 0. 0. 0.
      0. 0. 0. 0. 0. 0. 0. 0. 0. 0. 0. 0. 0. 0. 0. 5. 4. 0. 17. 0. 0. 3.
      0. 0. 0. 0. 0. 0. 0. 0. 0. 0. 0. 0. 0. 0. 0. 0. 0. 0. 0. 0. 0. 2.
      0. 0. 14. 0. 0. 12. 0. 0. 0. 0. 0. 0. 0. 0. 0. 0. 0. 0. 0. 0. 0.
      0. 0. 0. 0. 0. 7. 0. 0. 0. 0. 10. 9. 0. 0. 0. 0. 0. 0. 0. 0. 0. 0.
      0. 0. 0. 0. 0. 0. 0. 0. 0. 0. 0. 3. 0. 3. 7. 4. 136. 141. 3. 0. 0.
      0. 0. 0. 0. 0. 0. 0. 0. 0. 0. 0. 0. 0. 0. 0. 0. 0. 0. 0. 0. 7. 4.
      19. 254. 253. 9. 0. 0. 0. 0. 0. 0. 0. 0. 0. 0. 0. 0. 0. 0. 0. 0.
      0. 0. 0. 0. 2. 8. 0. 0. 2. 252. 250. 11. 0. 0. 0. 0. 0. 0. 0. 0.
      0. 0. 0. 0. 0. 0. 0. 0. 0. 0. 0. 0. 0. 0. 0. 8. 16. 246. 255. 103.
      0. 0. 0. 0. 0. 0. 0. 0. 0. 0. 0. 0. 0. 0. 0. 0. 0. 0. 0. 0. 3. 4.
      2. 0. 0. 255. 241. 197. 0. 0. 0. 0. 0. 0. 0. 0. 0. 0. 0. 0. 0. 0.
      0. 0. 0. 0. 0. 0. 0. 0. 6. 4. 2. 255. 240. 182. 0. 0. 0. 0. 0. 0.
      0. 0. 0. 0. 0. 0. 0. 0. 0. 0. 0. 0. 0. 0. 4. 0. 0. 5. 13. 255.
      255. 178. 0. 0. 0. 0. 0. 0. 0. 0. 0. 0. 0. 0. 0. 0. 0. 0. 0. 0. 0.
      0. 5. 0. 0. 0. 2. 183. 255. 183. 0. 0. 0. 0. 0. 0. 0. 0. 0. 0. 0.
      0. 0. 0. 0. 0. 0. 0. 0. 0. 0. 3. 8. 0. 0. 102. 247. 182. 0. 0. 0.
      0. 0. 0. 0. 0. 0. 0. 0. 0. 0. 0. 0. 0. 0. 0. 0. 0. 0. 4. 1. 0. 12.
      140. 255. 180. 0. 0. 0. 0. 0. 0. 0. 0. 0. 0. 0. 0. 0. 0. 0. 0. 0.
      0. 0. 0. 8. 1. 0. 0. 28. 234. 255. 185. 0. 0. 0. 0. 0. 0. 0. 0. 0.
      0. 0. 0. 0. 0. 0. 0. 0. 0. 0. 0. 0. 1. 9. 0. 0. 255. 241. 189. 0.
      0. 0. 0. 0. 0. 0. 0. 0. 0. 0. 0. 0. 0. 0. 0. 0. 0. 0. 0. 2. 9. 0.
      6. 16. 250. 248. 184. 0. 0. 0. 0. 0. 0. 0. 0. 0. 0. 0. 0. 0. 0. 0.
      0. 0. 0. 0. 0. 3. 0. 0. 16. 0. 241. 255. 185. 0. 0. 0. 0. 0. 0. 0.
      0. 0. 0. 0. 0. 0. 0. 0. 0. 0. 0. 0. 0. 0. 13. 8. 0. 26. 246. 255.
      165. 0. 0. 0. 0. 0. 0. 0. 0. 0. 0. 0. 0. 0. 0. 0. 0. 0. 0. 0. 0.
      8. 0. 0. 3. 146. 255. 246. 199. 0. 0. 0. 0. 0. 0. 0. 0. 0. 0. 0.
      0. 0. 0. 0. 0. 0. 0. 0. 0. 6. 0. 4. 6. 184. 255. 255. 178. 0. 0.
      0. 0. 0. 0. 0. 0. 0. 0. 0. 0. 0. 0. 0. 0. 0. 0. 0. 0. 0. 3. 15. 0.
      184. 254. 255. 175. 0. 0. 0. 0. 0. 0. 0. 0. 0. 0. 0. 0. 0. 0. 0.
      0. 0. 0. 0. 0. 0. 0. 0. 7. 183. 253. 250. 192. 0. 0. 0. 0. 0. 0.
      0. 0. 0. 0. 0. 0. 0. 0. 0. 0. 0. 0. 0. 0. 0. 8. 3. 0. 73. 252.
      255. 58. 0. 0. 0. 0. 0. 0. 0. 0. 0. 0. 0. 0. 0. 0. 0. 0. 0. 0. 0.
      0. 0. 0. 0. 0. 0. 0. 0. 0. 0. 0. 0. 0. 0. 0. 0. 0. 0. 0. 0. 0. 0.
      0. 0. 0. 0. 0. 0. 0. 0. 0. 0. 0. 0. 0. 0. 0. 0. 0. 0. 0. 0. 0. 0.
      0. 0. 0. 0. 0. 0. 0. 0. 0. 0. 0. 0. 0. 0. 0. 0. 0. 0. 0. 0. 0. 0.
      0. 0. 0. 0. 0. 0. 0. 0. 0. 0. 0. 0. 0. 0. 0. 0. 0. 0. 0. 0. 0. 0.
      0. 0. 0. 0. 0. 0. 0. 0. 0. 0. 0. 0. 0. 0. 0. 0. 0.</_>
    <_>
      0. 0. 0. 0. 0. 0. 0. 0. 11. 0. 0. 0. 2. 14. 0. 8. 0. 0. 0. 0. 0.
      0. 0. 0. 0. 0. 0. 0. 0. 0. 0. 0. 0. 0. 0. 0. 0. 33. 0. 30. 0. 0.
      7. 0. 0. 0. 0. 0. 0. 0. 0. 0. 0. 0. 0. 0. 0. 0. 0. 0. 0. 0. 0. 0.
      15. 0. 0. 176. 195. 0. 0. 16. 0. 0. 0. 0. 0. 0. 0. 0. 0. 0. 0. 0.
      0. 0. 0. 0. 0. 0. 0. 0. 0. 0. 21. 255. 254. 191. 22. 0. 0. 0. 0.
      0. 0. 0. 0. 0. 0. 0. 0. 0. 0. 0. 0. 0. 0. 0. 0. 0. 9. 0. 0. 255.
      251. 255. 1. 2. 0. 0. 0. 0. 0. 0. 0. 0. 0. 0. 0. 0. 0. 0. 0. 0. 0.
      0. 0. 0. 0. 4. 0. 252. 255. 241. 1. 7. 0. 0. 0. 0. 0. 0. 0. 0. 0.
      0. 0. 0. 0. 0. 0. 0. 0. 0. 0. 0. 0. 15. 0. 245. 255. 255. 0. 7. 0.
      0. 0. 0. 0. 0. 0. 0. 0. 0. 0. 0. 0. 0. 0. 0. 0. 0. 0. 0. 4. 0. 8.
      127. 253. 255. 12. 0. 0. 0. 0. 0. 0. 0. 0. 0. 0. 0. 0. 0. 0. 0. 0.
      0. 0. 0. 0. 0. 0. 13. 0. 69. 254. 251. 58. 0. 13. 0. 5. 3. 0. 11.
      0. 0. 0. 0. 0. 0. 0. 0. 0. 0. 0. 0. 0. 0. 0. 3. 4. 0. 187. 255.
      150. 0. 0. 11. 11. 0. 2. 0. 9. 6. 0. 0. 0. 0. 0. 0. 0. 0. 0. 0. 0.
      0. 6. 0. 9. 0. 138. 255. 225. 17. 0. 0. 2. 0. 0. 5. 0. 2. 0. 0. 0.
      0. 0. 0. 0. 0. 0. 0. 0. 0. 3. 0. 6. 19. 125. 254. 255. 124. 4. 8.
      0. 20. 0. 9. 0. 0. 0. 0. 0. 0. 0. 0. 0. 0. 0. 0. 0. 0. 16. 0. 0.
      0. 125. 255. 255. 184. 0. 14. 0. 0. 0. 0. 9. 6. 0. 0. 0. 0. 0. 0.
      0. 0. 0. 0. 0. 0. 0. 6. 27. 0. 133. 245. 255. 255. 188. 3. 26. 8.
      6. 1. 2. 0. 0. 0. 0. 0. 0. 0. 0. 0. 0. 0. 0. 0. 9. 0. 0. 0. 139.
      255. 234. 255. 255. 0. 0. 0. 0. 11. 0. 1. 0. 0. 0. 0. 0. 0. 0. 0.
      0. 0. 0. 0. 0. 0. 7. 2. 3. 66. 69. 253. 255. 192. 1. 5. 5. 0. 0.
      0. 0. 0. 0. 0. 0. 0. 0. 0. 0. 0. 0. 0. 2. 0. 0. 0. 10. 0. 0. 130.
      254. 255. 136. 0. 8. 0. 6. 0. 0. 0. 0. 0. 0. 0. 0. 0. 0. 0. 0. 0.
      0. 0. 9. 0. 1. 11. 12. 4. 255. 235. 255. 61. 8. 0. 14. 0. 0. 0. 0.
      0. 0. 0. 0. 0. 0. 0. 0. 0. 13. 0. 73. 255. 250. 246. 234. 255.
      232. 255. 255. 255. 68. 0. 0. 4. 0. 0. 0. 0. 0. 0. 0. 0. 0. 0. 0.
      0. 0. 11. 118. 246. 255. 252. 255. 248. 255. 255. 246. 252. 248.
      0. 21. 0. 0. 0. 0. 0. 0. 0. 0. 0. 0. 0. 0. 0. 2. 8. 55. 255. 255.
      255. 240. 254. 255. 239. 255. 252. 254. 144. 0. 0. 0. 0. 0. 0. 0.
      0. 0. 0. 0. 0. 0. 0. 1. 0. 7. 57. 113. 123. 134. 132. 127. 255.
      253. 255. 134. 0. 9. 6. 0. 0. 0. 0. 0. 0. 0. 0. 0. 0. 0. 0. 0. 13.
      2. 5. 0. 22. 0. 0. 5. 0. 4. 5. 0. 0. 0. 8. 0. 0. 0. 0. 0. 0. 0. 0.
      0. 0. 0. 0. 7. 0. 3. 0. 0. 0. 0. 5. 0. 3. 9. 0. 3. 6. 0. 0. 0. 0.
      0. 0. 0. 0. 0. 0. 0. 0. 0. 0. 0. 0. 0. 0. 0. 0. 0. 0. 0. 0. 0. 0.
      0. 0. 0. 0. 0. 0. 0. 0. 0. 0. 0. 0. 0. 0. 0. 0. 0. 0. 0. 0. 0. 0.
      0. 0. 0. 0. 0. 0. 0. 0. 0. 0. 0. 0. 0. 0. 0. 0. 0. 0. 0. 0. 0. 0.
      0. 0. 0. 0. 0. 0. 0. 0. 0. 0. 0. 0. 0. 0. 0. 0. 0. 0. 0. 0. 0. 0.
      0. 0. 0. 0. 0. 0. 0. 0. 0. 0. 0. 0. 0. 0. 0. 0. 0. 0. 0. 0. 0. 0.
      0. 0. 0. 0.</_>
    <_>
      0. 0. 0. 0. 0. 0. 0. 0. 1. 0. 0. 0. 0. 2. 4. 4. 0. 12. 0. 0. 1. 4.
      0. 3. 0. 0. 0. 0. 0. 0. 0. 0. 0. 0. 0. 0. 0. 0. 2. 1. 0. 0. 0. 0.
      12. 0. 0. 14. 0. 0. 14. 0. 0. 0. 0. 0. 0. 0. 0. 0. 0. 0. 0. 0. 0.
      0. 3. 3. 0. 0. 0. 0. 4. 0. 1. 14. 12. 6. 0. 0. 0. 0. 0. 0. 0. 0.
      0. 0. 0. 0. 0. 0. 3. 0. 0. 0. 0. 0. 2. 6. 0. 0. 3. 0. 0. 29. 0. 9.
      0. 0. 0. 0. 0. 0. 0. 0. 0. 0. 0. 0. 5. 0. 0. 0. 4. 2. 0. 1. 95.
      255. 0. 2. 21. 0. 0. 0. 0. 0. 0. 0. 0. 0. 0. 0. 0. 0. 0. 0. 2. 0.
      0. 5. 7. 0. 0. 0. 161. 255. 23. 0. 0. 3. 2. 6. 0. 0. 0. 0. 0. 0.
      0. 0. 0. 0. 0. 0. 1. 0. 0. 5. 2. 0. 2. 14. 210. 227. 32. 0. 13.
      11. 0. 1. 0. 0. 0. 0. 0. 0. 0. 0. 0. 0. 0. 0. 4. 0. 0. 0. 0. 0.
      16. 44. 244. 140. 12. 0. 0. 0. 10. 0. 0. 0. 0. 0. 0. 0. 0. 0. 0.
      0. 0. 0. 7. 0. 6. 0. 0. 9. 0. 121. 247. 39. 4. 0. 9. 0. 4. 0. 0.
      0. 0. 0. 0. 0. 0. 0. 0. 0. 0. 0. 0. 2. 8. 0. 1. 0. 32. 210. 180.
      6. 0. 0. 3. 0. 8. 0. 0. 0. 0. 0. 0. 0. 0. 0. 0. 0. 0. 0. 0. 9. 0.
      0. 16. 0. 71. 255. 136. 9. 6. 3. 7. 0. 5. 0. 0. 0. 0. 0. 0. 0. 0.
      0. 0. 0. 0. 0. 2. 9. 0. 0. 13. 0. 118. 254. 64. 0. 2. 0. 1. 0. 7.
      0. 0. 0. 0. 0. 0. 0. 0. 0. 0. 0. 0. 0. 0. 3. 4. 7. 0. 30. 190.
      233. 24. 0. 3. 0. 0. 0. 6. 0. 0. 0. 0. 0. 0. 0. 0. 0. 0. 0. 0. 0.
      2. 0. 0. 8. 0. 109. 255. 181. 15. 7. 9. 3. 0. 0. 2. 0. 0. 0. 0. 0.
      0. 0. 0. 0. 0. 0. 0. 0. 8. 0. 0. 0. 6. 164. 253. 85. 0. 0. 0. 0.
      0. 0. 4. 4. 0. 0. 0. 0. 0. 0. 0. 0. 0. 0. 0. 0. 0. 6. 2. 2. 0.
      159. 205. 8. 3. 14. 2. 3. 5. 2. 0. 0. 0. 0. 0. 0. 0. 0. 0. 0. 0.
      0. 0. 0. 0. 0. 12. 0. 17. 250. 193. 0. 0. 0. 0. 0. 0. 0. 0. 0. 0.
      0. 0. 0. 0. 0. 0. 0. 0. 0. 0. 0. 5. 14. 0. 0. 162. 245. 186. 6. 0.
      0. 0. 0. 0. 0. 0. 0. 0. 0. 0. 0. 0. 0. 0. 0. 0. 0. 0. 0. 0. 2. 0.
      0. 246. 247. 67. 3. 0. 0. 0. 0. 0. 0. 0. 0. 0. 0. 0. 0. 0. 0. 0.
      0. 0. 0. 0. 0. 0. 0. 0. 33. 255. 194. 0. 6. 0. 0. 0. 0. 0. 0. 0.
      0. 0. 0. 0. 0. 0. 0. 0. 0. 0. 0. 0. 0. 2. 8. 0. 72. 252. 96. 7. 0.
      0. 0. 0. 0. 0. 0. 0. 0. 0. 0. 0. 0. 0. 0. 0. 0. 0. 0. 0. 0. 0. 0.
      6. 136. 245. 88. 9. 0. 0. 0. 0. 0. 0. 0. 0. 0. 0. 0. 0. 0. 0. 0.
      0. 0. 0. 0. 0. 0. 0. 0. 14. 169. 246. 95. 0. 3. 0. 0. 0. 0. 0. 0.
      0. 0. 0. 0. 0. 0. 0. 0. 0. 0. 0. 0. 0. 0. 0. 15. 0. 119. 243. 5.
      4. 0. 0. 0. 0. 0. 0. 0. 0. 0. 0. 0. 0. 0. 0. 0. 0. 0. 0. 0. 0. 0.
      0. 0. 0. 0. 0. 0. 0. 0. 0. 0. 0. 0. 0. 0. 0. 0. 0. 0. 0. 0. 0. 0.
      0. 0. 0. 0. 0. 0. 0. 0. 0. 0. 0. 0. 0. 0. 0. 0. 0. 0. 0. 0. 0. 0.
      0. 0. 0. 0. 0. 0. 0. 0. 0. 0. 0. 0. 0. 0. 0. 0. 0. 0. 0. 0. 0. 0.
      0. 0. 0. 0. 0. 0. 0. 0. 0. 0. 0. 0. 0. 0. 0. 0. 0. 0. 0. 0. 0. 0.
      0. 0. 0. 0. 0. 0. 0. 0. 0. 0. 0. 0. 0. 0. 0. 0.</_>
    <_>
      0. 0. 0. 0. 0. 0. 0. 0. 7. 0. 0. 0. 0. 5. 0. 3. 3. 0. 4. 0. 0. 2.
      0. 4. 0. 0. 0. 0. 0. 0. 0. 0. 0. 0. 0. 0. 0. 0. 3. 0. 0. 1. 0. 5.
      0. 0. 2. 0. 2. 4. 0. 0. 0. 0. 0. 0. 0. 0. 0. 0. 0. 0. 0. 0. 2. 3.
      0. 0. 0. 0. 1. 0. 0. 13. 3. 0. 1. 0. 4. 0. 0. 0. 0. 0. 0. 0. 0. 0.
      0. 0. 0. 0. 7. 4. 0. 0. 3. 0. 13. 0. 0. 7. 1. 0. 6. 0. 7. 0. 0. 0.
      0. 0. 0. 0. 0. 0. 0. 0. 0. 0. 0. 0. 5. 13. 8. 0. 12. 0. 2. 0. 0.
      2. 15. 0. 6. 0. 0. 0. 0. 0. 0. 0. 0. 0. 0. 0. 0. 0. 6. 9. 0. 0. 0.
      11. 179. 239. 88. 0. 0. 0. 6. 0. 6. 4. 0. 0. 0. 0. 0. 0. 0. 0. 0.
      0. 0. 0. 0. 7. 0. 7. 2. 0. 187. 253. 188. 14. 3. 0. 0. 0. 4. 7. 0.
      0. 0. 0. 0. 0. 0. 0. 0. 0. 0. 0. 0. 0. 0. 5. 7. 0. 192. 254. 217.
      1. 0. 0. 11. 4. 0. 0. 0. 0. 0. 0. 0. 0. 0. 0. 0. 0. 0. 0. 0. 2. 4.
      2. 0. 36. 245. 255. 219. 5. 0. 2. 3. 4. 0. 7. 0. 0. 0. 0. 0. 0. 0.
      0. 0. 0. 0. 0. 0. 2. 1. 4. 0. 34. 250. 255. 182. 3. 3. 3. 0. 4. 0.
      3. 0. 0. 0. 0. 0. 0. 0. 0. 0. 0. 0. 0. 0. 2. 0. 4. 8. 28. 255.
      254. 135. 0. 10. 2. 0. 4. 0. 0. 0. 0. 0. 0. 0. 0. 0. 0. 0. 0. 0.
      0. 0. 2. 0. 3. 7. 21. 255. 253. 112. 0. 5. 0. 0. 4. 1. 0. 0. 0. 0.
      0. 0. 0. 0. 0. 0. 0. 0. 0. 0. 3. 0. 0. 0. 26. 253. 253. 121. 0. 0.
      0. 0. 4. 0. 0. 0. 0. 0. 0. 0. 0. 0. 0. 0. 0. 0. 0. 0. 1. 0. 0. 0.
      51. 252. 254. 127. 8. 0. 0. 7. 3. 0. 0. 0. 0. 0. 0. 0. 0. 0. 0. 0.
      0. 0. 0. 1. 0. 0. 3. 0. 91. 255. 254. 104. 6. 0. 0. 6. 0. 0. 0. 0.
      0. 0. 0. 0. 0. 0. 0. 0. 0. 0. 0. 3. 0. 0. 6. 1. 121. 255. 253. 72.
      0. 0. 0. 1. 0. 4. 3. 0. 0. 0. 0. 0. 0. 0. 0. 0. 0. 0. 0. 0. 5. 6.
      0. 6. 130. 250. 255. 25. 2. 0. 2. 0. 0. 2. 1. 0. 0. 0. 0. 0. 0. 0.
      0. 0. 0. 0. 0. 12. 14. 0. 1. 12. 202. 255. 245. 27. 5. 0. 3. 0. 0.
      1. 0. 0. 0. 0. 0. 0. 0. 0. 0. 0. 0. 0. 0. 0. 6. 0. 11. 0. 178.
      242. 255. 25. 6. 0. 4. 0. 0. 1. 0. 0. 0. 0. 0. 0. 0. 0. 0. 0. 0.
      0. 0. 4. 0. 5. 1. 0. 180. 243. 249. 19. 3. 0. 3. 0. 0. 2. 0. 0. 0.
      0. 0. 0. 0. 0. 0. 0. 0. 0. 0. 13. 0. 0. 0. 6. 215. 252. 205. 10.
      0. 0. 1. 0. 0. 4. 0. 0. 0. 0. 0. 0. 0. 0. 0. 0. 0. 0. 0. 0. 6. 0.
      4. 0. 225. 254. 181. 3. 0. 0. 0. 0. 0. 5. 0. 0. 0. 0. 0. 0. 0. 0.
      0. 0. 0. 0. 0. 2. 12. 0. 7. 2. 213. 255. 179. 2. 0. 0. 1. 0. 1. 5.
      0. 0. 0. 0. 0. 0. 0. 0. 0. 0. 0. 0. 0. 5. 0. 0. 0. 0. 138. 244.
      196. 3. 0. 2. 3. 0. 1. 5. 0. 0. 0. 0. 0. 0. 0. 0. 0. 0. 0. 0. 0.
      0. 16. 0. 8. 0. 50. 179. 92. 0. 0. 0. 0. 0. 0. 0. 0. 0. 0. 0. 0.
      0. 0. 0. 0. 0. 0. 0. 0. 0. 4. 0. 7. 0. 0. 27. 0. 0. 0. 0. 0. 0. 0.
      0. 0. 0. 0. 0. 0. 0. 0. 0. 0. 0. 0. 0. 0. 0. 0. 0. 1. 11. 1. 0. 5.
      0. 0. 0. 0. 0. 0. 0. 0. 0. 0. 0. 0. 0. 0. 0. 0. 0. 0. 0. 0. 0. 5.
      8. 0. 1. 13. 0. 12. 0. 0. 0. 0. 0. 0. 0. 0. 0. 0. 0. 0.</_>
    <_>
      0. 0. 0. 0. 0. 0. 0. 0. 5. 0. 15. 7. 0. 1. 0. 10. 0. 0. 0. 0. 0.
      0. 0. 0. 0. 0. 0. 0. 0. 0. 0. 0. 0. 0. 0. 0. 1. 0. 0. 1. 10. 20.
      0. 0. 0. 0. 0. 0. 0. 0. 0. 0. 0. 0. 0. 0. 0. 0. 0. 0. 0. 0. 0. 0.
      1. 22. 1. 0. 0. 0. 5. 5. 0. 0. 0. 0. 0. 0. 0. 0. 0. 0. 0. 0. 0. 0.
      0. 0. 0. 0. 0. 0. 0. 0. 0. 16. 7. 1. 0. 0. 0. 0. 0. 0. 0. 0. 0. 0.
      0. 0. 0. 0. 0. 0. 0. 0. 0. 0. 0. 0. 6. 14. 12. 0. 0. 248. 255.
      188. 0. 0. 0. 0. 0. 0. 0. 0. 0. 0. 0. 0. 0. 0. 0. 0. 0. 0. 0. 0.
      0. 0. 0. 11. 0. 255. 255. 252. 0. 0. 0. 0. 0. 0. 0. 0. 0. 0. 0. 0.
      0. 0. 0. 0. 0. 0. 0. 0. 1. 12. 6. 0. 12. 243. 255. 249. 0. 0. 0.
      0. 0. 0. 0. 0. 0. 0. 0. 0. 0. 0. 0. 0. 0. 0. 0. 0. 0. 0. 2. 0.
      135. 255. 239. 142. 0. 0. 0. 0. 0. 0. 0. 0. 0. 0. 0. 0. 0. 0. 0.
      0. 0. 0. 0. 0. 9. 0. 0. 17. 124. 249. 255. 118. 0. 0. 0. 0. 0. 0.
      0. 0. 0. 0. 0. 0. 0. 0. 0. 0. 0. 0. 0. 0. 0. 0. 0. 0. 121. 249.
      255. 63. 0. 0. 0. 0. 0. 0. 0. 0. 0. 0. 0. 0. 0. 0. 0. 0. 0. 0. 0.
      0. 0. 28. 0. 0. 130. 255. 255. 10. 0. 0. 0. 0. 0. 0. 0. 0. 0. 0.
      0. 0. 0. 0. 0. 0. 0. 0. 0. 0. 12. 0. 19. 0. 255. 231. 255. 0. 0.
      0. 0. 0. 0. 0. 0. 0. 0. 0. 0. 0. 0. 0. 0. 0. 0. 0. 0. 0. 0. 0. 0.
      1. 255. 255. 255. 3. 0. 0. 0. 0. 0. 0. 0. 0. 0. 0. 0. 0. 0. 0. 0.
      0. 0. 0. 0. 0. 0. 4. 15. 0. 244. 255. 243. 0. 0. 0. 0. 0. 0. 0. 0.
      0. 0. 0. 0. 0. 0. 0. 0. 0. 0. 0. 0. 0. 4. 0. 0. 126. 255. 255.
      133. 0. 0. 0. 0. 0. 0. 0. 0. 0. 0. 0. 0. 0. 0. 0. 0. 0. 0. 0. 0.
      0. 1. 6. 8. 121. 255. 255. 128. 0. 0. 0. 0. 0. 0. 0. 0. 0. 0. 0.
      0. 0. 0. 0. 0. 0. 0. 0. 0. 0. 0. 7. 0. 15. 189. 255. 254. 0. 0. 4.
      0. 0. 3. 4. 2. 0. 0. 0. 0. 0. 0. 0. 0. 0. 0. 0. 0. 0. 9. 0. 11. 0.
      255. 253. 239. 13. 6. 2. 1. 0. 0. 0. 2. 6. 0. 0. 0. 0. 0. 0. 0. 0.
      0. 0. 0. 0. 0. 0. 21. 2. 233. 255. 252. 61. 0. 2. 0. 12. 9. 0. 0.
      0. 0. 0. 0. 0. 0. 0. 0. 0. 0. 0. 0. 0. 8. 0. 0. 2. 127. 255. 255.
      191. 129. 133. 0. 6. 0. 0. 0. 8. 0. 0. 0. 0. 0. 0. 0. 0. 0. 0. 0.
      0. 6. 7. 0. 0. 141. 247. 244. 255. 254. 250. 4. 0. 0. 0. 0. 7. 0.
      0. 0. 0. 0. 0. 0. 0. 0. 0. 0. 0. 0. 3. 5. 7. 119. 255. 255. 250.
      255. 236. 3. 0. 4. 8. 0. 0. 0. 0. 0. 0. 0. 0. 0. 0. 0. 0. 0. 0. 4.
      7. 0. 0. 6. 191. 243. 252. 242. 140. 14. 0. 0. 0. 0. 7. 0. 0. 0.
      0. 0. 0. 0. 0. 0. 0. 0. 0. 0. 2. 0. 2. 0. 68. 138. 252. 131. 0. 6.
      0. 15. 0. 0. 0. 0. 0. 0. 0. 0. 0. 0. 0. 0. 0. 0. 0. 0. 0. 0. 0. 0.
      0. 0. 0. 0. 0. 0. 0. 0. 0. 0. 0. 0. 0. 0. 0. 0. 0. 0. 0. 0. 0. 0.
      0. 0. 0. 0. 0. 0. 0. 0. 0. 0. 0. 0. 0. 0. 0. 0. 0. 0. 0. 0. 0. 0.
      0. 0. 0. 0. 0. 0. 0. 0. 0. 0. 0. 0. 0. 0. 0. 0. 0. 0. 0. 0. 0. 0.
      0. 0. 0. 0. 0. 0. 0. 0. 0. 0. 0. 0. 0. 0. 0. 0. 0. 0. 0. 0. 0. 0.
      0. 0. 0. 0. 0. 0. 0. 0. 0. 0. 0.</_>
    <_>
      0. 0. 0. 0. 0. 0. 0. 0. 0. 0. 0. 0. 0. 0. 0. 0. 7. 0. 3. 7. 0. 0.
      3. 0. 0. 0. 0. 0. 0. 0. 0. 0. 0. 0. 0. 0. 0. 0. 0. 0. 0. 0. 0. 0.
      0. 0. 6. 0. 0. 16. 0. 6. 0. 0. 0. 0. 0. 0. 0. 0. 0. 0. 0. 0. 0. 0.
      0. 0. 0. 0. 0. 0. 0. 15. 0. 0. 0. 0. 0. 0. 0. 0. 0. 0. 0. 0. 0. 0.
      0. 0. 0. 0. 0. 0. 0. 0. 0. 0. 0. 0. 13. 3. 0. 0. 0. 14. 0. 20. 0.
      0. 0. 0. 0. 0. 0. 0. 0. 0. 0. 0. 0. 0. 0. 0. 0. 0. 0. 0. 0. 0.
      199. 211. 0. 5. 0. 0. 0. 0. 0. 0. 0. 0. 0. 0. 0. 0. 0. 0. 0. 0. 0.
      0. 0. 0. 0. 0. 14. 182. 254. 234. 50. 7. 0. 0. 0. 0. 0. 0. 0. 0.
      0. 0. 0. 0. 0. 0. 0. 0. 0. 0. 0. 0. 0. 0. 10. 245. 241. 222. 37.
      0. 13. 0. 0. 0. 0. 0. 0. 0. 0. 0. 0. 0. 0. 0. 0. 0. 0. 0. 0. 0. 0.
      0. 134. 245. 255. 193. 0. 9. 0. 0. 0. 0. 0. 0. 0. 0. 0. 0. 0. 0.
      0. 0. 8. 0. 10. 0. 4. 0. 11. 34. 255. 243. 255. 65. 0. 7. 0. 8. 0.
      0. 0. 0. 0. 0. 0. 0. 0. 0. 0. 0. 0. 0. 0. 15. 0. 2. 0. 81. 254.
      249. 139. 0. 0. 13. 0. 0. 0. 0. 0. 0. 0. 0. 0. 0. 0. 0. 0. 0. 0.
      0. 0. 13. 0. 2. 23. 185. 255. 255. 65. 0. 4. 4. 0. 0. 0. 0. 0. 0.
      0. 0. 0. 0. 0. 0. 0. 0. 6. 0. 2. 0. 0. 0. 108. 255. 237. 167. 9.
      8. 3. 0. 0. 7. 0. 0. 0. 0. 0. 0. 0. 0. 0. 0. 0. 0. 0. 0. 10. 4. 0.
      22. 185. 255. 255. 61. 0. 2. 0. 0. 0. 6. 0. 0. 0. 0. 0. 0. 0. 0.
      0. 0. 0. 0. 0. 1. 0. 11. 0. 103. 242. 255. 230. 12. 4. 14. 0. 3.
      0. 0. 0. 0. 0. 0. 0. 0. 0. 0. 0. 0. 0. 0. 2. 5. 0. 3. 2. 195. 255.
      255. 74. 0. 4. 4. 0. 0. 0. 4. 0. 0. 0. 0. 0. 0. 0. 0. 0. 0. 0. 0.
      0. 0. 5. 0. 33. 244. 241. 226. 0. 20. 0. 0. 2. 1. 0. 0. 0. 0. 0.
      0. 0. 0. 0. 0. 0. 0. 0. 0. 6. 0. 1. 7. 177. 255. 244. 127. 0. 0.
      0. 0. 0. 0. 0. 0. 0. 0. 0. 0. 0. 0. 0. 0. 0. 0. 0. 0. 0. 9. 0. 21.
      255. 247. 212. 10. 0. 0. 0. 0. 0. 0. 0. 0. 0. 0. 0. 0. 0. 0. 0. 0.
      0. 0. 0. 0. 0. 14. 3. 171. 255. 247. 131. 0. 0. 0. 0. 0. 0. 0. 0.
      0. 0. 0. 0. 0. 0. 0. 0. 0. 0. 0. 0. 0. 5. 0. 53. 255. 244. 255.
      52. 11. 0. 0. 0. 0. 0. 0. 0. 0. 0. 0. 0. 0. 0. 0. 0. 0. 0. 0. 0.
      0. 0. 8. 186. 254. 247. 174. 9. 0. 0. 0. 0. 0. 0. 0. 0. 0. 0. 0.
      0. 0. 0. 0. 0. 0. 0. 0. 0. 0. 0. 57. 255. 241. 255. 63. 0. 2. 0.
      0. 0. 0. 0. 0. 0. 0. 0. 0. 0. 0. 0. 0. 0. 0. 0. 0. 0. 0. 14. 79.
      248. 250. 182. 31. 0. 2. 0. 0. 0. 0. 0. 0. 0. 0. 0. 0. 0. 0. 0. 0.
      0. 0. 0. 0. 0. 0. 0. 73. 255. 247. 24. 0. 6. 0. 0. 0. 0. 0. 0. 0.
      0. 0. 0. 0. 0. 0. 0. 0. 0. 0. 0. 0. 0. 0. 0. 0. 0. 0. 0. 0. 0. 0.
      0. 0. 0. 0. 0. 0. 0. 0. 0. 0. 0. 0. 0. 0. 0. 0. 0. 0. 0. 0. 0. 0.
      0. 0. 0. 0. 0. 0. 0. 0. 0. 0. 0. 0. 0. 0. 0. 0. 0. 0. 0. 0. 0. 0.
      0. 0. 0. 0. 0. 0. 0. 0. 0. 0. 0. 0. 0. 0. 0. 0. 0. 0. 0. 0. 0. 0.
      0. 0. 0. 0. 0. 0. 0. 0. 0. 0. 0. 0. 0. 0. 0. 0. 0. 0. 0. 0. 0. 0.
      0. 0. 0. 0. 0. 0. 0. 0.</_>
    <_>
      0. 0. 0. 0. 0. 0. 0. 0. 0. 0. 0. 0. 0. 0. 0. 0. 0. 0. 14. 5. 0. 0.
      11. 0. 0. 11. 0. 0. 0. 0. 0. 0. 0. 0. 0. 0. 0. 0. 0. 0. 0. 0. 0.
      0. 10. 5. 0. 0. 0. 0. 0. 0. 0. 0. 0. 5. 0. 0. 0. 0. 0. 0. 0. 0. 0.
      0. 0. 0. 0. 0. 0. 0. 0. 3. 0. 4. 15. 9. 0. 13. 0. 0. 0. 12. 0. 0.
      0. 0. 0. 0. 0. 0. 0. 0. 0. 0. 0. 0. 0. 0. 4. 5. 0. 1. 0. 0. 0. 0.
      5. 4. 0. 4. 0. 0. 0. 0. 0. 0. 0. 0. 0. 0. 0. 0. 0. 0. 0. 0. 5. 0.
      0. 8. 0. 5. 15. 4. 0. 2. 0. 0. 0. 0. 0. 0. 0. 0. 0. 0. 0. 0. 0. 0.
      0. 0. 0. 0. 3. 0. 9. 0. 0. 8. 48. 49. 17. 0. 4. 0. 0. 0. 0. 0. 0.
      0. 0. 0. 0. 0. 0. 0. 0. 0. 0. 0. 0. 0. 4. 0. 91. 146. 224. 255.
      128. 0. 3. 4. 0. 0. 0. 0. 0. 0. 0. 0. 0. 0. 0. 0. 0. 0. 0. 0. 0.
      6. 0. 2. 198. 247. 255. 254. 249. 11. 0. 4. 0. 0. 0. 0. 0. 0. 0.
      0. 0. 12. 0. 0. 13. 0. 2. 0. 0. 1. 1. 117. 243. 253. 252. 243.
      251. 2. 0. 0. 0. 0. 0. 0. 0. 0. 0. 0. 10. 0. 8. 0. 0. 0. 8. 9. 40.
      100. 239. 255. 248. 242. 252. 255. 198. 21. 13. 0. 0. 0. 0. 0. 0.
      0. 0. 0. 0. 22. 0. 12. 8. 0. 11. 44. 218. 252. 255. 230. 254. 255.
      220. 143. 47. 0. 0. 0. 0. 0. 0. 0. 0. 0. 0. 0. 2. 0. 0. 13. 0. 3.
      0. 161. 255. 250. 255. 250. 248. 225. 56. 0. 0. 0. 3. 8. 0. 0. 0.
      0. 0. 0. 0. 0. 1. 8. 9. 0. 0. 54. 189. 228. 249. 255. 226. 254.
      88. 1. 10. 14. 1. 17. 0. 0. 0. 0. 0. 0. 0. 0. 0. 0. 0. 10. 3. 5.
      38. 255. 254. 254. 245. 255. 235. 207. 53. 26. 0. 0. 0. 0. 0. 0.
      0. 0. 0. 0. 0. 0. 0. 0. 1. 0. 52. 94. 232. 238. 255. 242. 255.
      220. 80. 17. 0. 0. 5. 0. 5. 3. 8. 4. 0. 0. 0. 0. 0. 0. 0. 0. 8.
      33. 189. 255. 237. 255. 252. 253. 253. 74. 8. 4. 0. 8. 0. 3. 3. 0.
      8. 0. 3. 0. 1. 5. 3. 0. 6. 5. 0. 210. 255. 236. 252. 251. 237.
      255. 69. 27. 0. 0. 3. 0. 0. 3. 0. 0. 0. 0. 0. 6. 0. 0. 0. 21. 0.
      36. 227. 239. 245. 250. 251. 255. 201. 82. 19. 0. 0. 0. 5. 0. 0.
      0. 0. 0. 0. 0. 0. 0. 0. 14. 0. 0. 45. 189. 234. 255. 251. 255.
      249. 111. 0. 0. 0. 0. 0. 4. 5. 0. 0. 0. 0. 0. 0. 0. 6. 8. 0. 0. 0.
      38. 200. 239. 255. 236. 250. 244. 120. 8. 0. 2. 2. 5. 5. 0. 0. 0.
      0. 0. 0. 0. 0. 0. 0. 0. 1. 22. 0. 62. 223. 255. 245. 255. 165. 52.
      18. 0. 0. 3. 0. 1. 0. 0. 0. 2. 5. 2. 0. 0. 0. 0. 0. 14. 0. 0. 10.
      237. 253. 246. 238. 240. 116. 0. 0. 7. 4. 0. 0. 0. 0. 0. 0. 3. 1.
      0. 0. 0. 0. 0. 0. 5. 0. 3. 14. 255. 251. 253. 180. 110. 27. 0. 0.
      0. 12. 0. 3. 2. 2. 4. 4. 0. 0. 0. 0. 0. 0. 0. 3. 4. 0. 2. 0. 239.
      255. 156. 28. 0. 0. 7. 4. 0. 6. 0. 0. 0. 0. 1. 0. 0. 0. 5. 0. 0.
      0. 0. 0. 2. 0. 0. 13. 41. 43. 25. 0. 0. 0. 0. 0. 0. 0. 0. 0. 0. 0.
      0. 0. 0. 0. 0. 0. 0. 0. 0. 0. 4. 0. 0. 0. 10. 10. 0. 0. 0. 0. 0.
      0. 0. 0. 0. 0. 0. 0. 0. 0. 0. 0. 0. 0. 0. 0. 0. 0. 1. 2. 0. 0. 0.
      0. 0. 0. 0. 0. 0. 0. 0. 0. 0. 0. 0. 0. 0. 0. 0. 0. 0. 0. 0. 0. 0.
      0. 0. 2. 5. 3. 0. 2. 8. 0. 0. 0. 0. 0. 0. 0. 0. 0. 0. 0. 0. 0. 0.
      0. 0. 0. 0. 0. 0.</_>
    <_>
      0. 0. 0. 0. 0. 0. 0. 0. 0. 4. 5. 0. 0. 1. 3. 1. 0. 6. 0. 0. 10. 0.
      0. 2. 0. 0. 0. 0. 0. 0. 0. 0. 0. 0. 0. 0. 0. 3. 3. 0. 0. 2. 2. 0.
      5. 0. 1. 16. 0. 0. 22. 0. 0. 0. 0. 0. 0. 0. 0. 0. 0. 0. 0. 0. 0.
      2. 1. 0. 0. 2. 0. 0. 5. 1. 0. 0. 0. 0. 5. 0. 0. 0. 0. 0. 0. 0. 0.
      0. 0. 0. 0. 0. 1. 0. 0. 0. 1. 2. 0. 0. 0. 5. 0. 0. 7. 5. 2. 12. 0.
      0. 0. 0. 0. 0. 0. 0. 0. 0. 0. 0. 1. 0. 0. 1. 2. 1. 0. 0. 2. 0. 6.
      12. 0. 0. 0. 0. 0. 0. 0. 0. 0. 0. 0. 0. 0. 0. 0. 0. 0. 0. 0. 2. 1.
      0. 2. 7. 0. 232. 243. 46. 0. 9. 0. 18. 0. 0. 0. 0. 0. 0. 0. 0. 0.
      0. 0. 0. 0. 0. 1. 3. 0. 0. 4. 15. 212. 233. 255. 148. 3. 0. 12. 0.
      0. 0. 0. 0. 0. 0. 0. 0. 0. 0. 0. 0. 0. 0. 3. 4. 0. 0. 6. 21. 244.
      255. 252. 127. 7. 0. 2. 5. 0. 0. 0. 0. 0. 0. 0. 0. 0. 0. 0. 0. 0.
      0. 8. 0. 0. 5. 31. 204. 255. 244. 255. 88. 0. 0. 15. 0. 0. 0. 0.
      0. 0. 0. 0. 0. 0. 0. 0. 0. 0. 10. 0. 1. 22. 0. 193. 247. 248. 255.
      111. 0. 11. 0. 0. 11. 0. 0. 0. 0. 0. 0. 0. 0. 0. 0. 0. 0. 0. 0. 0.
      0. 0. 79. 249. 255. 251. 173. 5. 0. 8. 0. 6. 0. 0. 0. 0. 0. 0. 0.
      0. 0. 0. 0. 0. 0. 17. 0. 13. 13. 28. 235. 250. 255. 255. 49. 0.
      17. 0. 2. 16. 0. 0. 0. 0. 0. 0. 0. 0. 0. 0. 0. 0. 0. 0. 1. 0. 4.
      147. 255. 255. 249. 243. 17. 0. 0. 0. 0. 0. 7. 0. 0. 0. 0. 0. 0.
      0. 0. 0. 0. 0. 0. 3. 14. 2. 28. 233. 255. 248. 255. 188. 25. 0. 0.
      12. 0. 0. 0. 0. 0. 0. 0. 0. 0. 0. 0. 0. 0. 0. 0. 0. 0. 0. 30. 210.
      255. 222. 217. 91. 9. 3. 2. 7. 0. 6. 0. 0. 0. 0. 0. 0. 0. 0. 0. 0.
      0. 0. 0. 0. 11. 0. 33. 211. 254. 255. 175. 3. 0. 9. 0. 0. 13. 0.
      7. 0. 0. 0. 0. 0. 0. 0. 0. 0. 0. 0. 0. 0. 0. 7. 88. 249. 255. 255.
      224. 0. 0. 0. 0. 0. 0. 0. 0. 0. 0. 0. 0. 0. 0. 0. 0. 0. 0. 0. 0.
      0. 5. 0. 78. 255. 231. 226. 77. 0. 0. 0. 0. 0. 0. 0. 0. 0. 0. 0.
      0. 0. 0. 0. 0. 0. 0. 0. 0. 0. 26. 0. 193. 247. 255. 95. 0. 0. 0.
      0. 0. 0. 0. 0. 0. 0. 0. 0. 0. 0. 0. 0. 0. 0. 0. 0. 0. 0. 0. 70.
      248. 247. 253. 10. 0. 0. 0. 0. 0. 0. 0. 0. 0. 0. 0. 0. 0. 0. 0. 0.
      0. 0. 0. 0. 0. 1. 0. 180. 247. 255. 236. 18. 10. 0. 0. 0. 0. 0. 0.
      0. 0. 0. 0. 0. 0. 0. 0. 0. 0. 0. 0. 0. 0. 6. 19. 174. 255. 249.
      190. 12. 10. 0. 0. 0. 0. 0. 0. 0. 0. 0. 0. 0. 0. 0. 0. 0. 0. 0. 0.
      0. 0. 0. 12. 188. 248. 246. 87. 0. 0. 0. 0. 0. 0. 0. 0. 0. 0. 0.
      0. 0. 0. 0. 0. 0. 0. 0. 0. 0. 0. 0. 48. 255. 255. 234. 67. 7. 4.
      0. 0. 0. 0. 0. 0. 0. 0. 0. 0. 0. 0. 0. 0. 0. 0. 0. 0. 0. 0. 6. 43.
      252. 203. 92. 1. 2. 0. 0. 0. 0. 0. 0. 0. 0. 0. 0. 0. 0. 0. 0. 0.
      0. 0. 0. 0. 0. 0. 4. 0. 18. 0. 0. 1. 0. 2. 0. 0. 0. 0. 0. 0. 0. 0.
      0. 0. 0. 0. 0. 0. 0. 0. 0. 0. 0. 0. 4. 11. 4. 2. 0. 13. 0. 13. 0.
      0. 0. 0. 0. 0. 0. 0. 0. 0. 0. 0. 0. 0. 0. 0. 0. 0. 0. 0. 0. 13. 0.
      4. 0. 2. 0. 0. 0. 0. 0. 0. 0. 0. 0. 0. 0. 0. 0. 0.</_>
    <_>
      0. 0. 0. 0. 0. 0. 0. 0. 6. 0. 0. 0. 1. 0. 0. 5. 1. 1. 0. 0. 0. 5.
      6. 0. 0. 0. 0. 0. 0. 0. 0. 0. 0. 0. 0. 0. 1. 1. 4. 6. 4. 0. 0. 0.
      0. 6. 6. 5. 3. 0. 0. 7. 0. 0. 0. 0. 0. 0. 0. 0. 0. 0. 0. 0. 0. 0.
      4. 1. 0. 0. 0. 0. 0. 6. 0. 0. 5. 10. 1. 0. 0. 0. 0. 0. 0. 0. 0. 0.
      0. 0. 0. 0. 0. 0. 0. 0. 0. 0. 2. 0. 9. 0. 5. 6. 0. 0. 15. 8. 0. 0.
      0. 0. 0. 0. 0. 0. 0. 0. 0. 0. 3. 2. 0. 0. 1. 6. 4. 0. 43. 255.
      215. 5. 10. 14. 0. 0. 0. 0. 0. 0. 0. 0. 0. 0. 0. 0. 0. 0. 0. 0. 0.
      3. 5. 1. 0. 0. 101. 253. 240. 54. 3. 0. 0. 13. 0. 0. 0. 0. 0. 0.
      0. 0. 0. 0. 0. 0. 0. 0. 0. 4. 2. 0. 0. 15. 186. 255. 200. 24. 2.
      0. 7. 0. 0. 0. 0. 0. 0. 0. 0. 0. 0. 0. 0. 0. 8. 0. 0. 5. 0. 0. 17.
      51. 254. 246. 147. 0. 0. 0. 8. 0. 0. 0. 0. 0. 0. 0. 0. 0. 0. 0. 0.
      0. 13. 0. 12. 0. 0. 5. 3. 64. 243. 237. 21. 7. 10. 0. 4. 1. 0. 0.
      0. 0. 0. 0. 0. 0. 0. 0. 0. 0. 0. 0. 7. 4. 2. 4. 0. 164. 255. 161.
      0. 0. 0. 3. 3. 0. 0. 0. 0. 0. 0. 0. 0. 0. 0. 0. 0. 0. 0. 0. 0. 1.
      11. 2. 54. 236. 226. 52. 0. 5. 0. 5. 0. 2. 0. 0. 0. 0. 0. 0. 0. 0.
      0. 0. 0. 0. 4. 3. 0. 1. 0. 0. 197. 253. 176. 0. 5. 10. 0. 2. 0. 1.
      0. 0. 0. 0. 0. 0. 0. 0. 0. 0. 0. 0. 0. 2. 10. 8. 0. 40. 255. 255.
      144. 6. 0. 0. 6. 4. 0. 0. 0. 0. 0. 0. 0. 0. 0. 0. 0. 0. 0. 0. 4.
      0. 0. 0. 9. 152. 255. 231. 63. 7. 0. 0. 8. 0. 5. 0. 0. 0. 0. 0. 0.
      0. 0. 0. 0. 0. 0. 0. 8. 0. 0. 0. 54. 241. 239. 146. 0. 0. 4. 8. 0.
      0. 6. 0. 0. 0. 0. 0. 0. 0. 0. 0. 0. 0. 0. 0. 0. 4. 9. 0. 77. 252.
      254. 70. 12. 0. 0. 3. 0. 0. 11. 0. 0. 0. 0. 0. 0. 0. 0. 0. 0. 0.
      0. 0. 0. 0. 5. 2. 155. 245. 199. 6. 0. 0. 0. 0. 0. 0. 0. 0. 0. 0.
      0. 0. 0. 0. 0. 0. 0. 0. 0. 0. 10. 0. 0. 108. 239. 255. 44. 0. 0.
      0. 0. 0. 0. 0. 0. 0. 0. 0. 0. 0. 0. 0. 0. 0. 0. 0. 0. 0. 0. 0. 41.
      214. 255. 218. 0. 20. 0. 0. 0. 0. 0. 0. 0. 0. 0. 0. 0. 0. 0. 0. 0.
      0. 0. 0. 0. 0. 1. 0. 174. 238. 249. 52. 14. 0. 0. 0. 0. 0. 0. 0.
      0. 0. 0. 0. 0. 0. 0. 0. 0. 0. 0. 0. 0. 0. 0. 44. 229. 255. 144. 0.
      15. 0. 0. 0. 0. 0. 0. 0. 0. 0. 0. 0. 0. 0. 0. 0. 0. 0. 0. 0. 0. 0.
      8. 171. 255. 203. 22. 10. 0. 14. 0. 0. 0. 0. 0. 0. 0. 0. 0. 0. 0.
      0. 0. 0. 0. 0. 0. 0. 0. 0. 57. 255. 249. 58. 2. 0. 2. 0. 0. 0. 0.
      0. 0. 0. 0. 0. 0. 0. 0. 0. 0. 0. 0. 0. 0. 0. 0. 0. 54. 248. 97. 1.
      3. 2. 6. 0. 0. 0. 0. 0. 0. 0. 0. 0. 0. 0. 0. 0. 0. 0. 0. 0. 0. 0.
      0. 0. 0. 0. 0. 0. 0. 0. 0. 0. 0. 0. 0. 0. 0. 0. 0. 0. 0. 0. 0. 0.
      0. 0. 0. 0. 0. 0. 0. 0. 0. 0. 0. 0. 0. 0. 0. 0. 0. 0. 0. 0. 0. 0.
      0. 0. 0. 0. 0. 0. 0. 0. 0. 0. 0. 0. 0. 0. 0. 0. 0. 0. 0. 0. 0. 0.
      0. 0. 0. 0. 0. 0. 0. 0. 0. 0. 0. 0. 0. 0. 0. 0. 0. 0. 0. 0. 0. 0.
      0. 0. 0. 0. 0. 0. 0. 0. 0. 0. 0. 0. 0. 0. 0. 0. 0. 0.</_>
    <_>
      0. 1. 0. 1. 8. 0. 0. 0. 0. 0. 2. 4. 3. 2. 3. 4. 0. 0. 3. 0. 0. 6.
      0. 5. 0. 0. 0. 0. 0. 7. 3. 0. 0. 0. 9. 9. 8. 2. 0. 0. 0. 0. 0. 0.
      6. 1. 7. 0. 6. 3. 0. 0. 0. 0. 0. 0. 1. 0. 2. 0. 0. 5. 6. 0. 0. 0.
      0. 3. 8. 9. 4. 0. 0. 0. 0. 0. 2. 0. 15. 3. 0. 0. 0. 0. 6. 0. 2. 7.
      1. 3. 0. 0. 0. 0. 1. 0. 0. 0. 0. 0. 0. 0. 0. 12. 5. 0. 7. 2. 0. 0.
      0. 0. 0. 0. 12. 0. 0. 0. 0. 12. 6. 1. 0. 1. 7. 9. 5. 0. 9. 0. 0.
      8. 1. 0. 0. 0. 0. 0. 0. 0. 0. 0. 9. 0. 0. 14. 0. 0. 44. 82. 109.
      93. 68. 95. 181. 255. 127. 93. 42. 0. 0. 10. 0. 3. 0. 0. 0. 0. 2.
      0. 1. 0. 11. 11. 0. 41. 223. 232. 246. 255. 255. 255. 250. 245.
      255. 238. 175. 2. 0. 7. 0. 0. 0. 0. 0. 0. 4. 0. 5. 4. 5. 0. 11.
      170. 252. 253. 253. 251. 249. 250. 254. 255. 244. 254. 237. 0. 0.
      1. 0. 0. 0. 0. 0. 0. 11. 0. 9. 0. 2. 0. 10. 178. 252. 255. 233.
      255. 255. 251. 255. 255. 255. 240. 222. 15. 0. 0. 10. 0. 0. 0. 0.
      0. 3. 0. 8. 0. 4. 0. 0. 101. 248. 255. 253. 255. 239. 255. 237.
      250. 249. 249. 255. 0. 3. 22. 0. 14. 0. 0. 0. 0. 0. 0. 4. 0. 1. 3.
      0. 23. 230. 241. 255. 201. 115. 103. 254. 255. 251. 255. 224. 0.
      17. 0. 9. 0. 0. 0. 0. 0. 1. 3. 0. 0. 0. 2. 7. 0. 51. 199. 118. 37.
      0. 158. 255. 240. 255. 247. 228. 9. 0. 0. 0. 0. 0. 0. 0. 0. 1. 2.
      0. 4. 0. 0. 12. 0. 2. 10. 0. 0. 6. 229. 255. 255. 245. 255. 174.
      0. 0. 0. 0. 11. 0. 0. 0. 0. 0. 0. 1. 9. 1. 0. 4. 0. 0. 16. 12. 28.
      157. 239. 250. 255. 255. 177. 34. 8. 8. 0. 14. 0. 0. 0. 0. 0. 0.
      0. 1. 1. 2. 2. 0. 0. 7. 4. 0. 216. 255. 252. 255. 237. 245. 9. 0.
      6. 0. 12. 0. 0. 0. 0. 0. 0. 6. 0. 0. 0. 0. 13. 0. 2. 0. 8. 8. 215.
      243. 248. 255. 247. 131. 0. 11. 0. 0. 2. 6. 0. 0. 0. 0. 0. 0. 0.
      0. 0. 0. 0. 0. 0. 12. 0. 129. 245. 252. 246. 247. 11. 6. 5. 0. 4.
      0. 6. 0. 2. 2. 1. 0. 0. 0. 0. 0. 0. 0. 0. 0. 0. 0. 39. 226. 254.
      255. 255. 234. 2. 0. 0. 7. 0. 13. 2. 4. 0. 2. 1. 0. 0. 0. 0. 0. 0.
      0. 0. 0. 0. 59. 206. 255. 246. 250. 245. 110. 4. 7. 0. 8. 0. 4. 0.
      5. 0. 2. 1. 0. 0. 0. 0. 0. 0. 0. 0. 0. 0. 102. 255. 242. 243. 252.
      217. 26. 4. 0. 0. 6. 44. 34. 46. 40. 24. 2. 1. 0. 0. 0. 0. 0. 0.
      0. 0. 0. 0. 119. 246. 255. 255. 255. 238. 176. 135. 125. 139. 163.
      239. 251. 255. 239. 188. 2. 1. 0. 0. 0. 0. 0. 0. 0. 0. 0. 0. 72.
      238. 255. 251. 233. 250. 255. 241. 255. 239. 232. 249. 255. 246.
      253. 186. 2. 1. 0. 0. 0. 0. 0. 0. 0. 0. 0. 0. 16. 187. 246. 255.
      253. 255. 251. 255. 247. 250. 255. 255. 212. 119. 87. 0. 2. 1. 0.
      0. 0. 0. 0. 0. 0. 0. 0. 0. 0. 39. 180. 232. 255. 236. 255. 251.
      255. 255. 224. 184. 47. 0. 8. 0. 2. 1. 0. 0. 0. 0. 0. 0. 0. 0. 0.
      0. 2. 5. 0. 88. 90. 182. 93. 85. 91. 91. 64. 19. 0. 0. 2. 0. 0. 0.
      0. 0. 0. 0. 0. 0. 0. 0. 0. 0. 1. 0. 3. 5. 0. 13. 0. 7. 0. 3. 4. 0.
      0. 1. 7. 4. 0. 0. 0. 0. 0. 0. 0. 0. 0. 0. 0. 0. 2. 0. 16. 0. 2. 0.
      1. 8. 0. 0. 6. 4. 1. 0. 0. 0. 0. 0. 0. 0. 0. 0. 0. 0. 0. 0. 0. 0.
      0. 0. 0. 0. 1. 8. 0. 0. 3. 2. 3. 4. 1. 0. 0. 3. 0. 0. 0. 0.</_>
    <_>
      0. 1. 0. 6. 7. 0. 0. 0. 1. 0. 6. 0. 0. 0. 0. 2. 10. 0. 0. 10. 11.
      0. 0. 0. 0. 0. 0. 0. 0. 5. 0. 0. 0. 5. 10. 2. 0. 0. 0. 12. 0. 2.
      0. 8. 0. 9. 7. 0. 0. 1. 13. 0. 0. 0. 0. 0. 0. 0. 4. 0. 0. 4. 5. 0.
      8. 0. 0. 0. 4. 5. 0. 0. 10. 0. 0. 7. 14. 3. 0. 0. 0. 0. 0. 0. 0.
      0. 8. 11. 0. 0. 0. 1. 5. 0. 2. 0. 0. 0. 14. 14. 0. 0. 8. 0. 0. 0.
      3. 4. 0. 0. 0. 0. 6. 0. 5. 0. 0. 6. 0. 7. 0. 18. 2. 5. 80. 171.
      245. 246. 176. 57. 0. 0. 20. 4. 0. 0. 0. 0. 0. 0. 0. 0. 7. 0. 0.
      15. 0. 0. 1. 59. 60. 170. 231. 255. 247. 255. 255. 233. 185. 32.
      0. 0. 7. 0. 0. 0. 0. 0. 0. 0. 8. 0. 5. 3. 0. 49. 115. 255. 255.
      250. 245. 247. 221. 208. 245. 253. 241. 75. 3. 0. 5. 2. 0. 0. 0.
      0. 9. 0. 0. 0. 6. 0. 13. 168. 252. 255. 240. 252. 255. 58. 0. 24.
      198. 247. 255. 73. 0. 0. 11. 0. 0. 0. 0. 0. 0. 9. 0. 0. 10. 0. 16.
      113. 251. 196. 104. 4. 4. 0. 6. 13. 193. 250. 255. 66. 0. 2. 0. 2.
      0. 0. 0. 0. 0. 7. 0. 0. 15. 0. 0. 23. 44. 26. 6. 0. 0. 12. 0. 43.
      246. 255. 166. 21. 0. 7. 0. 1. 0. 0. 0. 0. 0. 7. 0. 0. 4. 4. 0. 0.
      0. 0. 0. 3. 0. 0. 28. 148. 255. 248. 71. 2. 0. 2. 0. 5. 0. 0. 0.
      0. 0. 4. 4. 0. 0. 3. 12. 7. 4. 20. 0. 9. 3. 0. 157. 247. 255. 191.
      20. 1. 2. 0. 0. 3. 0. 0. 0. 0. 0. 0. 4. 7. 0. 0. 3. 0. 0. 0. 0. 4.
      3. 47. 236. 255. 227. 103. 0. 0. 2. 7. 5. 0. 0. 0. 0. 0. 5. 0. 0.
      2. 2. 0. 0. 0. 5. 2. 6. 4. 0. 126. 249. 243. 110. 7. 0. 0. 0. 0.
      7. 0. 0. 0. 0. 0. 6. 0. 0. 0. 0. 5. 5. 3. 0. 8. 3. 0. 33. 200.
      253. 193. 5. 0. 6. 9. 0. 0. 1. 1. 0. 0. 0. 0. 0. 7. 8. 0. 0. 2. 0.
      0. 0. 16. 0. 2. 144. 255. 249. 78. 3. 2. 4. 4. 0. 0. 2. 0. 0. 0.
      0. 0. 0. 7. 3. 1. 0. 0. 4. 0. 2. 0. 29. 211. 255. 254. 38. 0. 4.
      2. 0. 5. 0. 0. 7. 0. 0. 0. 0. 0. 0. 4. 0. 0. 10. 0. 0. 4. 4. 3.
      111. 255. 236. 162. 12. 3. 0. 11. 3. 0. 4. 0. 0. 12. 0. 0. 0. 0.
      0. 1. 0. 0. 0. 0. 1. 11. 0. 99. 241. 255. 227. 37. 0. 3. 0. 12. 0.
      4. 0. 10. 10. 0. 0. 0. 0. 0. 7. 0. 6. 2. 0. 6. 8. 0. 22. 240. 252.
      251. 106. 8. 0. 8. 5. 0. 37. 125. 2. 0. 3. 2. 0. 0. 0. 0. 1. 0. 0.
      0. 5. 6. 0. 23. 182. 255. 240. 255. 92. 171. 255. 241. 249. 240.
      254. 255. 235. 255. 182. 0. 0. 0. 0. 0. 0. 13. 2. 0. 13. 0. 2.
      158. 243. 247. 255. 241. 252. 255. 253. 255. 255. 245. 252. 241.
      255. 178. 110. 3. 0. 0. 0. 0. 0. 11. 13. 0. 3. 0. 9. 159. 253.
      243. 255. 255. 247. 233. 209. 191. 56. 72. 86. 50. 75. 7. 11. 0.
      0. 0. 0. 0. 9. 0. 7. 4. 0. 12. 0. 1. 51. 255. 214. 122. 254. 75.
      0. 7. 6. 0. 0. 7. 1. 0. 3. 0. 0. 0. 0. 0. 0. 0. 0. 0. 0. 0. 0. 0.
      0. 0. 0. 0. 0. 0. 0. 0. 0. 0. 0. 0. 0. 0. 0. 0. 0. 0. 0. 0. 0. 0.
      0. 0. 0. 0. 0. 0. 0. 0. 0. 0. 0. 0. 0. 0. 0. 0. 0. 0. 0. 0. 0. 0.
      0. 0. 0. 0. 0. 0. 0. 0. 0. 0. 0. 0. 0. 0. 0. 0. 0. 0. 0. 0. 0. 0.
      0. 0. 0. 0. 0. 0. 0. 0. 0. 0. 0. 0. 0. 0. 0. 0. 0. 0. 0. 0. 0. 0.
      0. 0. 0. 0. 0. 0. 0. 0. 0. 0. 0. 0. 0. 0. 0. 0.</_>
    <_>
      1. 0. 10. 0. 2. 0. 8. 0. 0. 0. 6. 2. 0. 0. 1. 1. 0. 0. 0. 0. 0. 0.
      1. 2. 0. 0. 0. 0. 0. 0. 4. 0. 1. 3. 0. 0. 7. 0. 0. 0. 1. 1. 0. 0.
      1. 0. 0. 0. 0. 0. 0. 0. 0. 0. 0. 0. 5. 0. 0. 0. 0. 13. 0. 8. 3. 0.
      2. 11. 11. 0. 0. 0. 0. 0. 0. 0. 0. 0. 0. 0. 0. 0. 0. 0. 3. 4. 0.
      0. 3. 0. 0. 2. 0. 0. 0. 0. 0. 0. 0. 8. 0. 0. 0. 0. 0. 0. 0. 0. 0.
      0. 0. 0. 0. 3. 0. 11. 15. 0. 8. 6. 0. 3. 5. 3. 3. 5. 0. 0. 0. 0.
      0. 0. 0. 0. 0. 0. 0. 0. 0. 0. 7. 13. 0. 0. 0. 18. 54. 49. 97. 92.
      74. 41. 8. 0. 0. 12. 0. 0. 0. 0. 0. 0. 1. 2. 0. 0. 0. 0. 0. 0. 0.
      4. 18. 209. 255. 255. 255. 255. 255. 245. 186. 93. 19. 0. 7. 5. 2.
      0. 0. 0. 0. 2. 0. 0. 0. 0. 4. 0. 5. 0. 0. 255. 251. 248. 177. 133.
      139. 215. 255. 251. 206. 183. 12. 9. 4. 0. 0. 0. 0. 0. 0. 0. 0. 0.
      0. 4. 6. 0. 0. 40. 156. 255. 253. 100. 0. 25. 116. 175. 220. 255.
      255. 177. 57. 4. 0. 1. 0. 0. 0. 0. 0. 0. 2. 0. 0. 5. 5. 2. 10. 23.
      17. 0. 0. 7. 0. 0. 37. 103. 211. 247. 249. 181. 49. 8. 0. 7. 0. 0.
      0. 0. 6. 0. 0. 0. 1. 0. 0. 0. 0. 0. 6. 8. 3. 0. 0. 4. 47. 103.
      255. 250. 167. 7. 0. 0. 0. 0. 0. 0. 0. 0. 3. 5. 0. 0. 3. 15. 7. 4.
      0. 0. 0. 6. 2. 0. 0. 0. 147. 245. 255. 40. 15. 0. 0. 0. 0. 0. 3.
      0. 0. 1. 1. 0. 0. 0. 0. 3. 8. 3. 0. 0. 5. 11. 1. 20. 74. 246. 255.
      54. 6. 0. 0. 0. 0. 0. 3. 0. 0. 0. 0. 3. 5. 5. 2. 0. 0. 0. 7. 4. 0.
      0. 0. 4. 70. 251. 246. 12. 0. 6. 0. 0. 0. 0. 0. 0. 6. 8. 2. 0. 0.
      0. 5. 0. 0. 2. 2. 0. 0. 2. 10. 0. 139. 255. 237. 0. 0. 3. 0. 0. 0.
      0. 5. 2. 0. 0. 0. 2. 5. 6. 0. 0. 0. 0. 0. 0. 0. 1. 0. 3. 174. 246.
      143. 0. 6. 0. 0. 0. 0. 0. 3. 3. 0. 12. 0. 2. 9. 0. 0. 1. 0. 2. 3.
      1. 3. 0. 0. 73. 247. 217. 55. 7. 0. 0. 6. 0. 0. 0. 0. 2. 0. 9. 0.
      3. 2. 0. 15. 2. 7. 0. 0. 12. 2. 8. 14. 214. 255. 74. 4. 0. 6. 5.
      0. 4. 7. 0. 0. 3. 0. 0. 0. 3. 0. 5. 0. 0. 0. 13. 12. 0. 3. 0. 199.
      255. 143. 10. 0. 0. 12. 0. 11. 0. 0. 11. 2. 2. 0. 0. 6. 10. 0. 6.
      15. 0. 18. 9. 0. 0. 23. 122. 255. 240. 49. 35. 95. 128. 151. 245.
      145. 29. 0. 2. 0. 0. 0. 0. 16. 8. 0. 0. 0. 7. 0. 4. 7. 38. 174.
      255. 251. 255. 223. 246. 241. 224. 110. 44. 0. 0. 3. 16. 0. 3. 0.
      0. 7. 0. 6. 11. 1. 23. 85. 114. 177. 253. 251. 251. 226. 163. 169.
      86. 0. 0. 23. 0. 17. 9. 6. 0. 0. 9. 0. 0. 0. 0. 90. 120. 211. 248.
      250. 255. 247. 203. 123. 17. 25. 0. 8. 0. 13. 0. 0. 8. 0. 0. 0. 7.
      0. 8. 0. 2. 4. 26. 200. 255. 244. 245. 224. 151. 71. 21. 0. 0. 0.
      0. 2. 1. 0. 4. 7. 0. 5. 0. 0. 0. 0. 0. 3. 1. 0. 2. 16. 28. 42. 27.
      8. 0. 0. 1. 0. 0. 0. 0. 0. 0. 0. 0. 0. 0. 0. 0. 0. 0. 0. 1. 3. 1.
      0. 0. 3. 10. 9. 1. 0. 0. 0. 3. 3. 2. 0. 0. 0. 0. 0. 0. 0. 0. 0. 0.
      0. 0. 0. 1. 3. 2. 0. 0. 0. 0. 0. 0. 0. 0. 1. 2. 1. 0. 0. 0. 0. 0.
      0. 0. 0. 0. 0. 0. 0. 0. 0. 0. 1. 2. 3. 2. 0. 0. 1. 3. 5. 5. 3. 0.
      0. 0. 0. 0. 0. 0. 0. 0. 0. 0. 0. 0. 0. 0.</_>
    <_>
      6. 0. 0. 2. 5. 3. 2. 3. 12. 0. 0. 14. 0. 0. 18. 0. 3. 0. 0. 5. 0.
      4. 7. 0. 0. 0. 0. 0. 2. 2. 2. 1. 0. 0. 0. 0. 0. 2. 19. 4. 0. 0. 0.
      1. 9. 10. 5. 1. 0. 0. 0. 11. 0. 0. 0. 0. 0. 3. 3. 0. 0. 0. 2. 4.
      9. 0. 0. 0. 5. 21. 0. 13. 0. 0. 0. 0. 9. 6. 0. 1. 0. 0. 0. 0. 0.
      1. 0. 0. 0. 4. 5. 3. 0. 0. 1. 7. 7. 0. 0. 0. 6. 11. 5. 0. 0. 5. 4.
      0. 0. 0. 0. 0. 1. 0. 0. 1. 2. 0. 0. 0. 7. 8. 0. 4. 0. 0. 24. 0. 6.
      0. 0. 12. 0. 0. 3. 1. 0. 0. 0. 0. 1. 0. 1. 4. 0. 0. 3. 23. 14. 94.
      160. 250. 255. 255. 240. 106. 82. 14. 0. 4. 9. 0. 0. 0. 0. 0. 0.
      0. 2. 0. 3. 3. 0. 5. 72. 147. 205. 255. 255. 255. 240. 244. 255.
      234. 243. 181. 64. 0. 0. 4. 0. 8. 0. 0. 0. 0. 3. 0. 3. 0. 0. 28.
      151. 255. 245. 255. 247. 249. 255. 248. 251. 255. 241. 255. 161.
      10. 0. 12. 0. 2. 0. 0. 0. 0. 7. 0. 0. 0. 1. 3. 180. 253. 244. 255.
      248. 250. 255. 254. 243. 255. 255. 251. 245. 92. 0. 0. 12. 0. 0.
      0. 0. 0. 0. 0. 4. 9. 0. 0. 111. 239. 255. 238. 254. 255. 165. 221.
      255. 249. 243. 242. 254. 89. 14. 0. 0. 0. 0. 0. 0. 0. 1. 0. 0. 3.
      0. 2. 0. 88. 22. 0. 7. 0. 1. 141. 243. 255. 255. 255. 241. 42. 1.
      0. 0. 10. 0. 0. 0. 0. 0. 0. 0. 0. 0. 32. 0. 0. 0. 5. 3. 0. 92.
      228. 252. 255. 235. 254. 177. 7. 0. 5. 8. 0. 0. 0. 0. 0. 1. 0. 5.
      0. 0. 8. 11. 1. 0. 8. 0. 12. 120. 255. 247. 255. 255. 251. 105. 3.
      1. 2. 4. 0. 0. 0. 0. 0. 8. 0. 2. 10. 0. 0. 8. 0. 0. 11. 0. 23.
      233. 255. 250. 248. 246. 180. 28. 1. 0. 0. 0. 7. 0. 0. 0. 0. 0. 0.
      0. 9. 20. 0. 12. 1. 5. 0. 0. 37. 255. 235. 254. 255. 104. 30. 0.
      0. 8. 0. 0. 6. 0. 0. 0. 0. 0. 11. 0. 0. 1. 4. 0. 2. 0. 0. 37. 219.
      249. 255. 255. 241. 70. 0. 11. 0. 0. 4. 0. 1. 0. 0. 0. 0. 0. 0. 0.
      0. 0. 0. 0. 0. 5. 0. 89. 255. 237. 255. 248. 239. 59. 1. 0. 6. 0.
      8. 0. 4. 0. 0. 0. 0. 0. 0. 0. 0. 0. 0. 0. 0. 0. 0. 94. 239. 255.
      245. 179. 85. 0. 4. 7. 0. 5. 0. 1. 2. 0. 0. 0. 0. 0. 0. 0. 0. 0.
      0. 0. 0. 8. 4. 96. 243. 243. 253. 92. 0. 0. 10. 0. 10. 0. 10. 8.
      0. 0. 0. 0. 0. 0. 0. 0. 0. 0. 0. 0. 0. 0. 20. 81. 255. 255. 254.
      80. 5. 6. 0. 7. 0. 156. 158. 141. 28. 0. 0. 0. 0. 0. 0. 0. 0. 0.
      0. 0. 0. 15. 0. 60. 236. 234. 249. 255. 103. 88. 87. 244. 244.
      255. 255. 241. 36. 0. 0. 0. 0. 0. 0. 0. 0. 0. 0. 0. 0. 0. 0. 0.
      43. 152. 255. 252. 238. 255. 255. 237. 255. 240. 233. 70. 0. 0. 0.
      0. 0. 0. 0. 0. 0. 0. 0. 0. 0. 2. 0. 8. 7. 72. 236. 225. 255. 255.
      248. 250. 255. 199. 102. 7. 0. 0. 0. 0. 0. 0. 0. 0. 0. 0. 0. 0. 0.
      4. 0. 0. 0. 0. 61. 232. 231. 232. 251. 255. 243. 32. 0. 5. 2. 0.
      0. 0. 0. 0. 0. 0. 0. 0. 0. 0. 0. 0. 1. 3. 0. 0. 12. 40. 63. 188.
      169. 103. 77. 13. 18. 0. 4. 0. 0. 0. 0. 0. 0. 0. 0. 0. 0. 0. 0. 1.
      2. 2. 0. 0. 0. 4. 10. 3. 8. 0. 8. 0. 3. 0. 0. 0. 0. 0. 0. 0. 0. 0.
      0. 0. 0. 0. 0. 1. 0. 0. 0. 0. 0. 0. 0. 0. 0. 0. 3. 2. 4. 2. 2. 0.
      0. 0. 0. 0. 0. 0. 0. 0. 0. 0. 0. 3. 0. 0. 0. 2. 6. 6. 4. 10. 3. 4.
      0. 0. 0. 0. 0. 0. 0. 0. 0.</_>
    <_>
      0. 0. 0. 0. 0. 0. 0. 0. 0. 7. 0. 5. 0. 0. 0. 12. 0. 17. 2. 4. 2.
      0. 4. 0. 0. 0. 0. 0. 0. 0. 0. 0. 0. 0. 0. 0. 0. 0. 16. 0. 0. 14.
      23. 0. 11. 0. 0. 0. 5. 0. 4. 9. 0. 0. 0. 0. 0. 0. 0. 0. 0. 0. 0.
      0. 11. 10. 0. 0. 0. 0. 0. 6. 7. 2. 24. 8. 7. 0. 1. 0. 0. 0. 0. 0.
      0. 0. 0. 0. 0. 0. 0. 0. 0. 7. 4. 181. 255. 254. 197. 60. 0. 0. 0.
      3. 0. 0. 6. 0. 0. 0. 0. 0. 0. 0. 0. 0. 0. 0. 0. 0. 4. 0. 255. 252.
      241. 251. 255. 246. 186. 87. 0. 10. 16. 0. 0. 0. 0. 0. 0. 0. 0. 0.
      0. 0. 0. 0. 0. 0. 0. 0. 134. 66. 2. 9. 177. 255. 255. 168. 27. 0.
      0. 0. 9. 2. 0. 0. 0. 0. 0. 0. 0. 0. 0. 0. 0. 0. 2. 0. 0. 0. 5. 0.
      0. 64. 253. 255. 191. 7. 0. 6. 7. 0. 0. 0. 0. 0. 0. 0. 0. 0. 0. 0.
      0. 0. 2. 0. 15. 0. 7. 3. 0. 6. 197. 244. 255. 7. 0. 2. 0. 3. 0. 0.
      0. 0. 6. 0. 0. 0. 1. 0. 0. 5. 5. 2. 8. 0. 0. 0. 9. 0. 54. 255.
      240. 5. 4. 0. 7. 0. 0. 0. 0. 0. 1. 1. 4. 6. 4. 0. 0. 0. 0. 0. 1.
      0. 13. 4. 0. 4. 10. 255. 255. 2. 0. 0. 8. 4. 0. 0. 0. 0. 0. 0. 4.
      1. 0. 0. 0. 0. 7. 0. 0. 8. 0. 0. 0. 0. 0. 241. 255. 0. 1. 12. 10.
      0. 0. 0. 0. 0. 0. 0. 0. 0. 0. 0. 2. 0. 1. 0. 6. 3. 4. 1. 10. 1.
      10. 250. 255. 9. 0. 0. 0. 7. 0. 0. 0. 0. 3. 2. 0. 0. 1. 6. 4. 0.
      1. 11. 4. 0. 9. 0. 0. 0. 119. 255. 232. 11. 3. 0. 0. 8. 0. 0. 0.
      0. 0. 0. 0. 3. 5. 1. 0. 0. 0. 0. 9. 6. 8. 2. 13. 0. 247. 255. 134.
      0. 15. 12. 0. 0. 0. 0. 0. 0. 0. 0. 0. 4. 2. 0. 0. 15. 10. 4. 0. 9.
      0. 0. 0. 12. 255. 239. 70. 0. 1. 0. 0. 7. 0. 0. 0. 0. 8. 0. 0. 5.
      0. 0. 17. 51. 248. 255. 61. 0. 10. 14. 0. 190. 251. 196. 7. 0. 4.
      1. 4. 0. 0. 0. 0. 0. 0. 5. 0. 0. 10. 8. 0. 250. 255. 248. 252.
      187. 74. 0. 199. 252. 255. 122. 0. 8. 0. 0. 4. 1. 0. 0. 0. 0. 7.
      1. 0. 1. 0. 0. 0. 255. 237. 255. 255. 255. 246. 255. 240. 250.
      196. 5. 0. 0. 10. 11. 0. 0. 0. 0. 0. 0. 4. 0. 0. 10. 1. 0. 22.
      235. 255. 255. 239. 255. 255. 234. 255. 255. 0. 0. 0. 22. 0. 3. 0.
      10. 0. 0. 0. 0. 0. 0. 4. 0. 0. 4. 0. 81. 241. 255. 245. 253. 255.
      255. 251. 255. 146. 1. 0. 7. 0. 0. 15. 0. 0. 0. 0. 0. 0. 2. 4. 0.
      0. 12. 0. 0. 16. 63. 140. 134. 107. 6. 197. 239. 247. 194. 123.
      121. 135. 131. 132. 3. 0. 0. 0. 0. 0. 0. 0. 4. 6. 13. 9. 9. 0. 0.
      4. 0. 4. 0. 0. 197. 249. 255. 255. 252. 255. 195. 0. 2. 0. 0. 0.
      0. 8. 0. 0. 2. 0. 0. 0. 0. 3. 0. 9. 0. 15. 3. 0. 0. 69. 121. 200.
      129. 64. 3. 4. 5. 0. 0. 0. 0. 0. 1. 0. 3. 7. 0. 6. 0. 1. 0. 0. 4.
      0. 0. 12. 0. 7. 0. 0. 15. 0. 1. 11. 0. 0. 0. 0. 0. 0. 0. 0. 0. 0.
      0. 0. 0. 0. 0. 0. 0. 0. 0. 0. 0. 0. 0. 0. 0. 0. 0. 0. 0. 0. 0. 0.
      0. 0. 0. 0. 0. 0. 0. 0. 0. 0. 0. 0. 0. 0. 0. 0. 0. 0. 0. 0. 0. 0.
      0. 0. 0. 0. 0. 0. 0. 0. 0. 0. 0. 0. 0. 0. 0. 0. 0. 0. 0. 0. 0. 0.
      0. 0. 0. 0. 0. 0. 0. 0. 0. 0. 0. 0. 0. 0. 0. 0. 0. 0. 0. 0. 0. 0.
      0. 0. 0. 0. 0. 0. 0. 0. 0. 0. 0. 0. 0. 0. 0. 0. 0. 0. 0.</_>
    <_>
      0. 0. 0. 0. 0. 0. 0. 0. 0. 8. 1. 0. 0. 0. 0. 2. 7. 0. 10. 0. 2.
      13. 0. 8. 0. 0. 0. 0. 0. 0. 0. 0. 0. 0. 0. 0. 2. 0. 5. 0. 15. 0.
      0. 0. 0. 11. 2. 9. 0. 5. 6. 0. 0. 0. 0. 0. 0. 0. 0. 0. 0. 0. 0. 0.
      16. 0. 0. 1. 0. 10. 10. 3. 0. 0. 3. 5. 0. 0. 23. 0. 0. 0. 0. 0. 0.
      0. 0. 0. 0. 0. 0. 0. 0. 7. 15. 7. 132. 196. 255. 144. 47. 0. 12.
      0. 0. 0. 8. 0. 0. 0. 0. 0. 0. 0. 0. 0. 0. 0. 0. 0. 7. 2. 0. 178.
      255. 242. 255. 255. 187. 56. 1. 0. 7. 2. 0. 3. 0. 0. 0. 0. 0. 0.
      0. 0. 0. 0. 0. 0. 4. 16. 215. 238. 245. 204. 135. 241. 255. 177.
      0. 2. 0. 4. 0. 5. 0. 0. 0. 0. 0. 0. 0. 0. 0. 0. 0. 0. 9. 196. 255.
      255. 118. 8. 6. 78. 243. 244. 73. 1. 0. 3. 3. 3. 0. 0. 0. 0. 0. 0.
      0. 0. 0. 0. 0. 0. 0. 236. 255. 155. 18. 0. 0. 7. 175. 255. 189. 0.
      5. 0. 0. 0. 0. 0. 0. 0. 5. 0. 14. 0. 7. 0. 0. 20. 88. 237. 238.
      11. 0. 12. 0. 1. 66. 237. 246. 55. 4. 0. 16. 0. 0. 0. 0. 0. 5. 0.
      0. 7. 3. 0. 19. 0. 237. 250. 105. 0. 0. 0. 18. 0. 0. 153. 246.
      204. 2. 5. 5. 0. 0. 0. 0. 0. 6. 0. 9. 0. 0. 0. 6. 127. 247. 210.
      7. 0. 23. 0. 0. 10. 0. 50. 255. 255. 46. 0. 0. 13. 0. 0. 0. 0. 5.
      0. 13. 0. 0. 5. 0. 169. 255. 114. 0. 11. 0. 0. 2. 0. 6. 0. 177.
      241. 198. 13. 10. 0. 0. 0. 0. 0. 0. 2. 0. 11. 6. 8. 0. 9. 72. 0.
      0. 7. 0. 19. 3. 1. 0. 9. 72. 255. 255. 8. 13. 0. 0. 0. 0. 0. 0. 4.
      0. 4. 3. 0. 0. 32. 79. 184. 200. 181. 202. 106. 14. 2. 9. 0. 36.
      243. 243. 44. 0. 8. 0. 0. 0. 0. 0. 4. 14. 0. 0. 0. 59. 214. 246.
      255. 252. 251. 254. 243. 255. 211. 105. 0. 3. 194. 255. 145. 0. 0.
      0. 0. 0. 0. 0. 8. 0. 3. 0. 15. 187. 255. 255. 184. 97. 29. 0. 75.
      205. 254. 246. 186. 0. 191. 250. 121. 0. 5. 0. 0. 0. 0. 4. 2. 0.
      0. 0. 56. 233. 255. 59. 5. 3. 2. 1. 0. 26. 158. 255. 248. 184.
      228. 255. 60. 3. 0. 0. 0. 0. 0. 0. 3. 1. 0. 0. 54. 254. 242. 0. 7.
      0. 0. 8. 0. 11. 24. 116. 250. 252. 237. 248. 40. 0. 9. 0. 0. 0. 0.
      0. 0. 0. 0. 3. 31. 252. 254. 5. 0. 13. 3. 1. 5. 0. 0. 3. 172. 251.
      255. 255. 84. 22. 0. 0. 0. 0. 0. 5. 0. 0. 3. 0. 0. 186. 255. 170.
      7. 0. 0. 0. 10. 8. 8. 82. 212. 236. 252. 255. 101. 0. 4. 0. 0. 0.
      0. 6. 0. 0. 4. 0. 0. 75. 211. 252. 217. 80. 37. 74. 43. 81. 206.
      226. 248. 255. 255. 121. 5. 0. 2. 0. 0. 0. 0. 0. 2. 0. 0. 1. 4. 0.
      82. 231. 247. 249. 243. 254. 255. 244. 253. 255. 177. 68. 38. 5.
      6. 0. 14. 0. 0. 0. 0. 0. 0. 4. 0. 0. 6. 0. 0. 34. 111. 246. 255.
      246. 241. 157. 133. 47. 0. 2. 2. 0. 0. 8. 0. 0. 0. 0. 0. 3. 0. 6.
      1. 0. 0. 16. 0. 0. 0. 0. 0. 1. 0. 4. 0. 5. 0. 9. 0. 17. 0. 0. 3.
      0. 0. 0. 0. 0. 0. 0. 0. 0. 0. 0. 0. 0. 0. 0. 0. 0. 0. 0. 0. 0. 0.
      0. 0. 0. 0. 0. 0. 0. 0. 0. 0. 0. 0. 0. 0. 0. 0. 0. 0. 0. 0. 0. 0.
      0. 0. 0. 0. 0. 0. 0. 0. 0. 0. 0. 0. 0. 0. 0. 0. 0. 0. 0. 0. 0. 0.
      0. 0. 0. 0. 0. 0. 0. 0. 0. 0. 0. 0. 0. 0. 0. 0. 0. 0. 0. 0. 0. 0.
      0. 0. 0. 0. 0. 0. 0. 0. 0. 0. 0. 0. 0. 0. 0. 0. 0. 0. 0. 0. 0. 0.
      0. 0. 0. 0. 0. 0.</_>
    <_>
      0. 0. 0. 0. 0. 0. 0. 0. 7. 0. 0. 11. 0. 0. 0. 8. 0. 7. 0. 0. 0. 0.
      4. 3. 0. 0. 0. 0. 0. 0. 0. 0. 0. 0. 0. 0. 0. 0. 4. 0. 9. 0. 2. 0.
      1. 0. 0. 7. 15. 0. 0. 5. 0. 0. 0. 0. 0. 0. 0. 0. 0. 0. 0. 0. 6. 2.
      0. 2. 1. 3. 5. 8. 0. 12. 3. 0. 0. 16. 10. 0. 0. 0. 0. 0. 0. 0. 0.
      0. 0. 0. 0. 0. 0. 7. 5. 0. 0. 0. 0. 0. 0. 3. 1. 10. 0. 0. 0. 14.
      0. 0. 0. 0. 0. 0. 0. 0. 0. 0. 0. 0. 0. 13. 0. 1. 71. 197. 246.
      255. 255. 169. 64. 0. 0. 9. 0. 0. 0. 0. 0. 0. 0. 0. 0. 0. 0. 0. 0.
      0. 15. 0. 19. 63. 227. 230. 255. 248. 255. 250. 206. 8. 6. 0. 7.
      0. 0. 0. 0. 0. 0. 0. 0. 0. 0. 0. 0. 0. 0. 9. 32. 226. 248. 252.
      162. 215. 225. 255. 255. 59. 17. 0. 0. 11. 0. 0. 0. 0. 0. 0. 0. 0.
      0. 0. 0. 0. 0. 71. 197. 248. 250. 91. 7. 0. 72. 235. 255. 76. 0.
      14. 0. 0. 0. 0. 0. 0. 4. 0. 0. 1. 1. 0. 0. 0. 19. 192. 255. 254.
      71. 0. 0. 3. 25. 248. 255. 108. 0. 0. 0. 3. 0. 0. 0. 0. 0. 0. 1.
      1. 0. 0. 4. 14. 158. 238. 236. 152. 0. 20. 11. 0. 17. 255. 250.
      190. 0. 19. 0. 4. 0. 0. 0. 0. 0. 0. 3. 1. 0. 0. 11. 28. 255. 240.
      44. 0. 12. 0. 0. 0. 83. 245. 252. 144. 6. 0. 11. 0. 0. 0. 0. 0. 0.
      0. 2. 1. 0. 0. 10. 26. 218. 69. 14. 0. 8. 0. 5. 14. 134. 250. 243.
      86. 0. 0. 9. 0. 0. 0. 0. 0. 0. 0. 0. 1. 0. 0. 3. 11. 33. 0. 15. 0.
      0. 13. 0. 0. 154. 255. 255. 55. 12. 0. 0. 1. 0. 0. 0. 0. 3. 0. 0.
      1. 2. 0. 0. 0. 1. 1. 0. 25. 0. 8. 5. 75. 227. 255. 197. 4. 10. 3.
      0. 2. 0. 0. 0. 0. 2. 0. 0. 0. 2. 0. 0. 0. 0. 12. 0. 0. 0. 0. 3.
      248. 255. 233. 48. 0. 0. 17. 0. 5. 0. 0. 0. 0. 0. 0. 0. 0. 0. 0.
      1. 5. 0. 3. 0. 0. 0. 18. 189. 255. 240. 155. 0. 3. 12. 0. 5. 0. 0.
      0. 0. 0. 0. 10. 0. 0. 5. 0. 2. 0. 0. 2. 0. 4. 4. 124. 248. 255.
      228. 41. 0. 10. 0. 0. 0. 0. 0. 0. 0. 0. 0. 0. 0. 3. 0. 2. 8. 3.
      20. 22. 97. 155. 151. 255. 255. 250. 117. 46. 61. 44. 15. 54. 46.
      0. 0. 0. 0. 0. 0. 0. 8. 9. 0. 0. 0. 22. 173. 237. 243. 255. 255.
      230. 251. 254. 255. 248. 255. 238. 230. 255. 183. 35. 0. 0. 0. 0.
      12. 0. 5. 0. 0. 4. 24. 159. 251. 255. 249. 255. 234. 255. 192.
      165. 176. 173. 204. 187. 166. 173. 101. 0. 0. 0. 0. 0. 0. 3. 7. 0.
      2. 0. 23. 246. 252. 245. 254. 241. 255. 117. 0. 16. 0. 0. 24. 22.
      0. 1. 1. 0. 0. 0. 0. 0. 0. 6. 2. 3. 8. 0. 15. 255. 244. 255. 255.
      253. 127. 0. 0. 2. 7. 0. 0. 0. 0. 0. 2. 2. 0. 0. 0. 0. 7. 7. 0. 0.
      0. 8. 42. 244. 254. 248. 213. 33. 1. 11. 5. 0. 0. 9. 11. 5. 1. 0.
      2. 1. 0. 0. 0. 0. 2. 0. 0. 19. 0. 0. 0. 112. 227. 102. 10. 2. 8.
      0. 8. 0. 0. 6. 0. 0. 2. 4. 4. 0. 0. 0. 0. 0. 0. 0. 0. 0. 0. 0. 0.
      0. 0. 0. 0. 0. 0. 0. 0. 0. 0. 0. 0. 0. 0. 0. 0. 0. 0. 0. 0. 0. 0.
      0. 0. 0. 0. 0. 0. 0. 0. 0. 0. 0. 0. 0. 0. 0. 0. 0. 0. 0. 0. 0. 0.
      0. 0. 0. 0. 0. 0. 0. 0. 0. 0. 0. 0. 0. 0. 0. 0. 0. 0. 0. 0. 0. 0.
      0. 0. 0. 0. 0. 0. 0. 0. 0. 0. 0. 0. 0. 0. 0. 0. 0. 0. 0. 0. 0. 0.
      0. 0. 0. 0. 0. 0. 0. 0. 0. 0. 0. 0. 0. 0. 0. 0. 0.</_>
    <_>
      0. 0. 0. 0. 0. 0. 0. 0. 0. 0. 0. 0. 0. 0. 0. 0. 0. 0. 0. 0. 0. 0.
      0. 0. 0. 0. 0. 0. 0. 0. 0. 0. 0. 0. 0. 0. 0. 0. 0. 0. 0. 0. 0. 0.
      0. 0. 0. 0. 0. 0. 0. 0. 0. 0. 0. 0. 0. 0. 0. 0. 0. 0. 0. 0. 0. 0.
      0. 0. 0. 0. 0. 0. 0. 0. 0. 0. 0. 0. 0. 0. 0. 0. 0. 0. 0. 0. 0. 0.
      0. 0. 0. 0. 0. 0. 0. 0. 0. 0. 0. 0. 0. 0. 0. 0. 0. 0. 0. 0. 0. 0.
      0. 0. 0. 0. 0. 0. 0. 0. 0. 0. 0. 0. 0. 0. 0. 0. 0. 0. 0. 0. 0. 0.
      0. 0. 0. 0. 0. 0. 0. 0. 0. 0. 0. 0. 0. 0. 0. 0. 0. 0. 0. 0. 0. 0.
      0. 0. 0. 0. 0. 0. 0. 0. 0. 0. 0. 0. 0. 0. 0. 0. 0. 0. 0. 0. 0. 0.
      0. 0. 0. 0. 0. 0. 0. 0. 0. 0. 0. 0. 0. 0. 0. 0. 0. 0. 0. 0. 0. 0.
      0. 0. 0. 0. 0. 0. 0. 0. 0. 0. 0. 0. 0. 0. 0. 0. 0. 0. 0. 0. 0. 0.
      0. 0. 0. 0. 0. 0. 6. 0. 5. 8. 0. 8. 0. 0. 14. 2. 0. 1. 0. 0. 9. 0.
      0. 1. 0. 4. 0. 10. 0. 0. 0. 0. 0. 10. 4. 0. 0. 0. 14. 4. 106. 98.
      104. 125. 124. 109. 77. 14. 0. 0. 16. 5. 0. 10. 1. 5. 0. 0. 0. 0.
      6. 0. 0. 6. 4. 70. 173. 248. 255. 255. 250. 255. 243. 241. 255.
      247. 143. 38. 0. 0. 5. 0. 0. 0. 0. 0. 0. 0. 0. 3. 0. 0. 5. 245.
      248. 244. 234. 182. 108. 100. 112. 148. 190. 234. 255. 150. 5. 0.
      19. 1. 5. 12. 0. 0. 0. 0. 0. 2. 7. 5. 12. 216. 165. 121. 29. 20.
      5. 0. 0. 0. 0. 112. 241. 236. 36. 0. 0. 0. 0. 0. 0. 0. 0. 0. 16.
      0. 0. 9. 0. 0. 0. 4. 0. 0. 0. 4. 5. 9. 0. 125. 255. 255. 23. 0. 3.
      4. 8. 0. 0. 0. 0. 0. 0. 0. 0. 0. 15. 0. 13. 0. 4. 0. 0. 1. 0. 14.
      61. 213. 255. 206. 17. 2. 0. 0. 1. 0. 0. 0. 0. 0. 0. 0. 7. 0. 0.
      0. 0. 9. 2. 0. 17. 106. 134. 200. 221. 255. 255. 249. 173. 109.
      25. 0. 7. 1. 0. 0. 0. 0. 0. 0. 0. 0. 0. 0. 0. 0. 8. 8. 255. 255.
      241. 245. 255. 255. 255. 255. 238. 255. 255. 142. 0. 16. 0. 4. 0.
      1. 0. 0. 0. 0. 0. 0. 0. 0. 0. 37. 248. 250. 252. 255. 207. 102. 7.
      21. 83. 187. 255. 253. 122. 11. 25. 0. 12. 8. 0. 0. 0. 0. 0. 0. 0.
      0. 0. 34. 212. 247. 173. 78. 18. 3. 10. 5. 0. 15. 130. 235. 255.
      221. 203. 11. 0. 0. 0. 0. 0. 0. 0. 0. 0. 0. 2. 0. 1. 6. 0. 0. 1.
      9. 0. 0. 11. 0. 0. 56. 224. 252. 138. 0. 0. 17. 0. 0. 0. 0. 0. 0.
      0. 0. 0. 16. 11. 0. 0. 3. 5. 0. 2. 16. 0. 0. 22. 0. 7. 14. 0. 0.
      11. 9. 0. 0. 0. 0. 0. 0. 0. 0. 4. 0. 0. 6. 12. 0. 0. 3. 0. 0. 4.
      7. 0. 0. 12. 4. 2. 17. 0. 0. 0. 0. 0. 0. 0. 0. 0. 0. 3. 4. 7. 0.
      0. 0. 6. 2. 0. 6. 0. 0. 0. 8. 0. 0. 0. 4. 0. 7. 0. 0. 0. 0. 0. 0.
      0. 0. 0. 0. 10. 0. 0. 1. 6. 0. 9. 0. 3. 12. 0. 9. 2. 3. 1. 2. 0.
      0. 0. 0. 0. 0. 0. 0. 0. 0. 0. 0. 0. 0. 0. 0. 0. 0. 0. 0. 0. 0. 0.
      0. 0. 0. 0. 0. 0. 0. 0. 0. 0. 0. 0. 0. 0. 0. 0. 0. 0. 0. 0. 0. 0.
      0. 0. 0. 0. 0. 0. 0. 0. 0. 0. 0. 0. 0. 0. 0. 0. 0. 0. 0. 0. 0. 0.
      0. 0. 0. 0. 0. 0. 0. 0. 0. 0. 0. 0. 0. 0. 0. 0. 0. 0. 0. 0. 0. 0.
      0. 0. 0. 0. 0. 0. 0. 0. 0. 0. 0. 0. 0. 0. 0. 0. 0. 0. 0. 0. 0. 0.
      0. 0. 0.</_>
    <_>
      0. 0. 0. 0. 0. 0. 0. 0. 0. 7. 6. 0. 0. 11. 8. 0. 6. 0. 0. 7. 0.
      14. 0. 2. 0. 0. 0. 0. 0. 0. 0. 0. 0. 0. 0. 0. 0. 4. 0. 0. 11. 0.
      0. 19. 0. 9. 0. 7. 0. 4. 0. 0. 0. 0. 0. 0. 0. 0. 0. 0. 0. 0. 0. 0.
      0. 11. 7. 0. 4. 3. 0. 5. 0. 0. 19. 0. 0. 21. 0. 14. 0. 0. 0. 0. 0.
      0. 0. 0. 0. 0. 0. 0. 4. 0. 0. 9. 2. 1. 7. 0. 1. 13. 0. 0. 2. 0. 0.
      4. 0. 0. 0. 0. 0. 0. 0. 0. 0. 0. 0. 0. 12. 10. 3. 0. 0. 0. 0. 1.
      0. 29. 113. 128. 145. 133. 38. 0. 0. 0. 0. 0. 0. 0. 0. 0. 0. 0. 0.
      0. 0. 0. 0. 26. 53. 13. 11. 96. 183. 255. 254. 255. 255. 246. 245.
      126. 0. 0. 0. 0. 0. 0. 0. 0. 0. 0. 0. 0. 14. 0. 62. 202. 234. 157.
      159. 254. 243. 253. 217. 164. 149. 182. 250. 184. 0. 0. 0. 0. 0.
      0. 0. 0. 0. 0. 0. 0. 0. 17. 160. 255. 251. 255. 247. 157. 133.
      110. 18. 0. 0. 57. 255. 251. 0. 0. 0. 0. 0. 0. 0. 0. 0. 0. 0. 0.
      10. 0. 164. 245. 234. 194. 50. 0. 0. 14. 0. 0. 4. 193. 248. 224.
      0. 0. 0. 0. 0. 0. 0. 0. 0. 0. 0. 0. 0. 0. 89. 105. 47. 11. 0. 0.
      7. 0. 11. 0. 2. 255. 238. 151. 0. 0. 0. 0. 0. 0. 0. 0. 0. 0. 0. 0.
      6. 0. 0. 3. 0. 0. 6. 6. 1. 0. 0. 15. 17. 238. 255. 149. 0. 0. 0.
      0. 0. 0. 0. 0. 0. 0. 0. 0. 0. 6. 0. 3. 9. 0. 6. 0. 0. 9. 9. 0.
      139. 255. 242. 11. 0. 0. 0. 0. 0. 0. 0. 0. 0. 0. 0. 0. 0. 5. 8. 1.
      0. 0. 0. 0. 10. 0. 0. 86. 233. 255. 88. 9. 0. 0. 0. 0. 0. 0. 0. 0.
      0. 0. 0. 0. 5. 0. 0. 0. 3. 17. 0. 7. 1. 4. 0. 174. 255. 238. 37.
      0. 0. 0. 0. 0. 0. 0. 0. 0. 0. 0. 0. 0. 1. 1. 12. 3. 0. 0. 0. 2. 0.
      2. 129. 255. 255. 33. 9. 0. 0. 0. 0. 0. 0. 0. 0. 0. 0. 0. 0. 0. 0.
      0. 0. 4. 1. 0. 7. 2. 5. 2. 185. 249. 132. 1. 6. 0. 0. 0. 0. 0. 5.
      0. 7. 0. 0. 108. 159. 206. 222. 197. 217. 222. 163. 103. 102. 27.
      2. 162. 247. 170. 10. 5. 0. 5. 0. 0. 0. 0. 0. 11. 0. 8. 90. 245.
      244. 255. 245. 255. 254. 224. 255. 255. 246. 251. 240. 251. 228.
      53. 0. 0. 8. 0. 0. 0. 0. 0. 0. 0. 0. 9. 191. 255. 255. 254. 240.
      215. 189. 98. 103. 171. 226. 255. 251. 249. 225. 71. 8. 57. 0. 10.
      0. 0. 0. 0. 9. 0. 0. 0. 189. 247. 248. 221. 65. 11. 10. 0. 0. 18.
      134. 249. 255. 240. 255. 255. 193. 229. 0. 0. 0. 0. 0. 0. 0. 13.
      0. 0. 90. 245. 255. 250. 126. 3. 0. 10. 7. 104. 255. 248. 199.
      130. 191. 255. 255. 198. 0. 2. 0. 0. 0. 0. 0. 7. 1. 0. 11. 138.
      235. 255. 255. 160. 46. 57. 184. 249. 225. 103. 6. 1. 18. 76. 97.
      35. 0. 14. 0. 0. 0. 0. 2. 0. 10. 1. 0. 7. 103. 159. 191. 173. 206.
      235. 201. 87. 28. 1. 0. 14. 0. 0. 0. 4. 9. 0. 0. 0. 0. 0. 4. 2. 0.
      12. 0. 0. 0. 9. 20. 4. 26. 4. 10. 1. 0. 11. 6. 0. 9. 4. 1. 9. 0.
      0. 0. 0. 0. 0. 0. 0. 0. 0. 0. 0. 0. 0. 0. 0. 0. 0. 0. 0. 0. 0. 0.
      0. 0. 0. 0. 0. 0. 0. 0. 0. 0. 0. 0. 0. 0. 0. 0. 0. 0. 0. 0. 0. 0.
      0. 0. 0. 0. 0. 0. 0. 0. 0. 0. 0. 0. 0. 0. 0. 0. 0. 0. 0. 0. 0. 0.
      0. 0. 0. 0. 0. 0. 0. 0. 0. 0. 0. 0. 0. 0. 0. 0. 0. 0. 0. 0. 0. 0.
      0. 0. 0. 0. 0. 0. 0. 0. 0. 0. 0. 0. 0. 0. 0. 0. 0. 0. 0. 0. 0. 0.
      0. 0. 0. 0. 0. 0. 0.</_>
    <_>
      0. 0. 0. 0. 0. 0. 0. 0. 0. 7. 0. 0. 4. 0. 0. 0. 0. 11. 0. 6. 5. 1.
      0. 5. 0. 0. 0. 0. 0. 0. 0. 0. 0. 0. 0. 0. 0. 0. 0. 19. 2. 0. 0.
      21. 0. 0. 0. 0. 0. 6. 4. 5. 0. 0. 0. 0. 0. 0. 0. 0. 0. 0. 0. 0. 8.
      1. 0. 0. 0. 8. 0. 0. 13. 1. 13. 7. 0. 3. 4. 0. 0. 0. 0. 0. 0. 0.
      0. 0. 0. 0. 0. 0. 0. 0. 12. 0. 11. 0. 5. 0. 0. 0. 0. 4. 0. 0. 6.
      0. 0. 0. 0. 0. 0. 0. 0. 0. 0. 0. 0. 0. 0. 15. 0. 0. 77. 205. 252.
      179. 85. 34. 0. 0. 0. 0. 5. 2. 0. 0. 0. 0. 0. 0. 0. 0. 0. 0. 0. 0.
      0. 2. 34. 214. 248. 250. 253. 253. 244. 174. 17. 1. 10. 1. 0. 0.
      0. 0. 0. 0. 0. 0. 0. 0. 0. 0. 0. 0. 5. 9. 28. 219. 255. 225. 255.
      248. 255. 244. 17. 0. 6. 3. 0. 0. 0. 0. 0. 0. 0. 0. 0. 0. 0. 0. 0.
      0. 0. 1. 0. 73. 120. 93. 250. 253. 236. 255. 24. 0. 6. 0. 0. 3. 0.
      0. 0. 0. 0. 0. 0. 0. 0. 0. 0. 0. 0. 11. 0. 0. 11. 137. 253. 251.
      255. 113. 12. 5. 2. 0. 1. 0. 0. 0. 0. 0. 0. 0. 0. 0. 0. 0. 0. 0.
      11. 0. 16. 6. 93. 238. 255. 251. 162. 53. 0. 0. 0. 0. 0. 0. 0. 0.
      0. 0. 0. 0. 0. 0. 0. 0. 0. 0. 0. 0. 2. 53. 255. 252. 255. 221. 58.
      2. 0. 2. 1. 0. 3. 3. 0. 0. 0. 0. 0. 0. 0. 0. 0. 0. 0. 0. 1. 0. 17.
      228. 249. 255. 229. 112. 9. 0. 0. 11. 5. 0. 2. 1. 0. 0. 0. 0. 0.
      0. 0. 0. 0. 0. 0. 0. 5. 0. 169. 255. 251. 251. 137. 18. 0. 0. 3.
      7. 1. 0. 0. 0. 0. 0. 0. 0. 0. 0. 0. 0. 0. 0. 0. 0. 0. 63. 225.
      254. 255. 209. 6. 3. 0. 1. 1. 0. 0. 0. 0. 1. 0. 0. 0. 0. 0. 0. 0.
      0. 0. 0. 0. 0. 9. 107. 249. 253. 251. 59. 10. 0. 0. 3. 0. 0. 1. 2.
      1. 5. 0. 0. 0. 0. 0. 0. 0. 0. 0. 0. 0. 0. 0. 194. 255. 242. 211.
      4. 0. 6. 0. 2. 0. 0. 2. 0. 0. 1. 0. 0. 0. 0. 0. 0. 0. 0. 0. 0. 0.
      0. 2. 195. 255. 241. 123. 0. 0. 3. 0. 0. 0. 9. 0. 9. 0. 0. 0. 0.
      0. 0. 0. 0. 0. 0. 0. 0. 0. 0. 0. 112. 255. 255. 133. 17. 3. 0. 2.
      0. 0. 8. 0. 0. 0. 13. 0. 0. 0. 0. 0. 0. 0. 0. 0. 0. 0. 0. 9. 64.
      255. 237. 202. 0. 10. 6. 3. 3. 0. 12. 2. 7. 0. 0. 0. 0. 0. 0. 0.
      0. 0. 0. 0. 0. 0. 0. 0. 0. 102. 255. 255. 183. 155. 41. 2. 6. 0.
      0. 0. 10. 0. 4. 0. 0. 0. 0. 0. 0. 0. 0. 0. 0. 0. 0. 0. 7. 0. 124.
      241. 255. 255. 255. 218. 170. 89. 52. 19. 3. 0. 5. 0. 0. 0. 0. 0.
      0. 0. 0. 0. 0. 0. 0. 3. 0. 23. 0. 106. 209. 255. 243. 231. 255.
      255. 250. 174. 75. 0. 7. 0. 0. 0. 0. 0. 0. 0. 0. 0. 0. 0. 0. 9. 0.
      0. 1. 7. 25. 58. 225. 255. 255. 235. 248. 255. 244. 105. 1. 0. 0.
      0. 0. 0. 0. 0. 0. 0. 0. 0. 0. 0. 13. 0. 7. 0. 0. 4. 4. 52. 133.
      137. 138. 201. 252. 137. 0. 0. 0. 0. 0. 0. 0. 0. 0. 0. 0. 0. 0. 0.
      0. 0. 0. 0. 0. 0. 0. 0. 0. 0. 0. 0. 0. 0. 0. 0. 0. 0. 0. 0. 0. 0.
      0. 0. 0. 0. 0. 0. 0. 0. 0. 0. 0. 0. 0. 0. 0. 0. 0. 0. 0. 0. 0. 0.
      0. 0. 0. 0. 0. 0. 0. 0. 0. 0. 0. 0. 0. 0. 0. 0. 0. 0. 0. 0. 0. 0.
      0. 0. 0. 0. 0. 0. 0. 0. 0. 0. 0. 0. 0. 0. 0. 0. 0. 0. 0. 0. 0. 0.
      0. 0. 0. 0. 0. 0. 0. 0. 0. 0. 0. 0. 0. 0. 0.</_>
    <_>
      0. 0. 4. 8. 1. 0. 0. 3. 0. 0. 2. 1. 0. 0. 1. 6. 1. 2. 0. 0. 0. 1.
      5. 4. 0. 0. 0. 0. 6. 0. 0. 0. 0. 2. 4. 5. 0. 0. 0. 0. 3. 4. 0. 0.
      0. 0. 1. 6. 5. 0. 0. 0. 0. 0. 0. 0. 0. 0. 0. 0. 2. 4. 0. 0. 1. 8.
      11. 4. 0. 0. 2. 13. 7. 0. 0. 0. 0. 0. 0. 8. 0. 0. 0. 0. 0. 2. 7.
      2. 0. 0. 1. 0. 0. 0. 0. 0. 0. 5. 3. 0. 0. 0. 0. 4. 5. 1. 0. 0. 0.
      0. 0. 0. 1. 2. 0. 0. 0. 1. 7. 9. 0. 4. 9. 7. 6. 4. 0. 0. 1. 6. 3.
      0. 0. 6. 11. 7. 0. 0. 0. 0. 5. 0. 0. 0. 3. 0. 0. 0. 0. 0. 0. 0. 0.
      3. 8. 6. 0. 4. 4. 0. 0. 0. 0. 0. 0. 0. 0. 0. 1. 0. 0. 8. 5. 0. 0.
      13. 0. 40. 112. 192. 255. 255. 229. 180. 137. 105. 66. 36. 12. 0.
      0. 13. 0. 0. 0. 0. 2. 0. 3. 3. 0. 0. 41. 96. 192. 235. 255. 252.
      222. 215. 233. 253. 255. 249. 254. 255. 202. 100. 18. 0. 0. 0. 0.
      0. 6. 1. 0. 1. 1. 9. 201. 255. 245. 184. 127. 33. 0. 4. 62. 243.
      101. 59. 36. 107. 200. 249. 139. 2. 0. 0. 0. 0. 0. 1. 0. 0. 0. 0.
      99. 115. 46. 7. 0. 4. 0. 4. 66. 101. 5. 0. 4. 8. 0. 228. 210. 2.
      0. 0. 0. 0. 0. 6. 0. 1. 0. 0. 8. 0. 0. 0. 0. 15. 0. 0. 23. 0. 0.
      0. 64. 140. 248. 247. 66. 11. 0. 0. 0. 0. 0. 7. 0. 3. 3. 7. 0. 0.
      5. 5. 5. 7. 13. 6. 0. 0. 122. 242. 253. 230. 191. 24. 0. 0. 0. 0.
      0. 0. 0. 2. 0. 3. 0. 8. 0. 39. 110. 108. 104. 96. 94. 107. 154.
      215. 244. 159. 73. 41. 0. 14. 5. 0. 0. 0. 0. 0. 0. 3. 0. 7. 0. 0.
      0. 50. 220. 253. 255. 255. 252. 250. 230. 109. 39. 24. 0. 0. 0. 0.
      6. 0. 0. 0. 0. 0. 2. 7. 0. 7. 2. 0. 0. 21. 8. 41. 36. 17. 37. 129.
      211. 196. 64. 0. 0. 12. 9. 6. 0. 2. 0. 0. 0. 0. 0. 5. 0. 0. 3. 0.
      3. 0. 6. 0. 8. 0. 8. 5. 0. 115. 223. 188. 0. 0. 0. 7. 0. 1. 0. 0.
      0. 0. 1. 2. 0. 0. 15. 45. 11. 4. 0. 6. 9. 1. 0. 2. 2. 0. 38. 228.
      212. 27. 0. 4. 0. 0. 0. 0. 0. 0. 0. 2. 14. 9. 24. 238. 40. 0. 0.
      0. 0. 0. 0. 2. 1. 0. 0. 67. 202. 226. 42. 14. 0. 0. 0. 0. 0. 0. 0.
      8. 0. 0. 105. 153. 6. 0. 3. 4. 8. 10. 4. 0. 0. 1. 6. 0. 39. 224.
      188. 0. 24. 3. 0. 0. 0. 0. 4. 0. 18. 6. 78. 150. 0. 13. 0. 0. 0.
      0. 0. 0. 2. 6. 13. 0. 0. 72. 255. 68. 0. 0. 0. 0. 0. 0. 0. 7. 8.
      0. 92. 191. 20. 0. 9. 7. 0. 0. 0. 7. 6. 0. 0. 18. 12. 9. 209. 154.
      0. 0. 0. 0. 0. 0. 2. 7. 0. 0. 15. 231. 80. 18. 0. 0. 8. 6. 1. 0.
      0. 0. 10. 0. 0. 6. 195. 208. 0. 17. 0. 0. 0. 0. 0. 0. 15. 7. 0.
      102. 255. 112. 18. 0. 0. 0. 2. 0. 0. 12. 7. 3. 0. 123. 233. 113.
      7. 0. 0. 0. 0. 0. 0. 0. 0. 0. 7. 0. 102. 254. 195. 91. 4. 0. 11.
      5. 0. 1. 0. 35. 163. 248. 125. 19. 0. 10. 0. 0. 0. 0. 0. 0. 1. 4.
      0. 0. 12. 37. 175. 210. 222. 161. 75. 55. 104. 151. 222. 253. 214.
      96. 9. 0. 8. 0. 0. 0. 0. 0. 3. 0. 0. 2. 0. 0. 1. 15. 0. 27. 114.
      190. 234. 249. 231. 196. 136. 73. 13. 0. 0. 0. 0. 9. 0. 0. 0. 0.
      6. 0. 0. 1. 2. 0. 0. 0. 5. 7. 10. 0. 0. 0. 4. 0. 2. 0. 0. 7. 8. 0.
      0. 6. 0. 0. 0. 0. 5. 0. 0. 2. 5. 1. 0. 0. 0. 0. 0. 0. 0. 3. 7. 0.
      0. 7. 8. 0. 0. 6. 3. 0. 0. 0. 0. 0.</_>
    <_>
      0. 2. 0. 0. 5. 2. 0. 0. 0. 3. 0. 4. 0. 15. 8. 0. 0. 1. 11. 0. 0.
      9. 0. 2. 0. 0. 0. 0. 7. 1. 0. 0. 4. 0. 0. 11. 11. 0. 0. 13. 0. 0.
      0. 4. 6. 0. 0. 0. 1. 0. 0. 2. 0. 0. 0. 0. 0. 1. 2. 2. 3. 0. 0. 3.
      0. 0. 0. 0. 4. 14. 12. 0. 3. 0. 2. 0. 7. 0. 12. 0. 0. 0. 0. 0. 0.
      6. 0. 0. 1. 8. 4. 1. 5. 0. 3. 0. 9. 0. 0. 11. 3. 0. 0. 1. 0. 0. 8.
      0. 0. 0. 0. 0. 6. 2. 0. 1. 8. 0. 0. 1. 66. 115. 147. 153. 232.
      255. 202. 98. 8. 1. 0. 19. 5. 0. 0. 14. 0. 0. 0. 0. 0. 0. 1. 13.
      1. 0. 53. 150. 245. 255. 255. 255. 255. 254. 249. 255. 255. 129.
      1. 0. 0. 11. 0. 0. 0. 0. 0. 0. 3. 0. 0. 0. 0. 7. 115. 242. 255.
      250. 204. 178. 174. 180. 202. 255. 247. 200. 150. 14. 15. 5. 0.
      16. 0. 0. 0. 0. 0. 4. 4. 1. 2. 0. 6. 24. 146. 76. 0. 16. 10. 0.
      20. 136. 255. 255. 230. 0. 0. 2. 0. 0. 0. 0. 0. 0. 0. 0. 0. 0. 0.
      0. 0. 0. 3. 0. 0. 0. 10. 0. 28. 204. 249. 255. 212. 0. 0. 4. 0. 0.
      0. 0. 0. 0. 0. 0. 0. 0. 0. 0. 0. 0. 2. 6. 11. 0. 0. 6. 76. 255.
      249. 255. 232. 10. 0. 1. 0. 8. 0. 0. 0. 0. 0. 0. 0. 0. 0. 0. 0. 0.
      0. 0. 12. 0. 0. 22. 95. 236. 255. 244. 215. 8. 0. 2. 0. 0. 0. 0.
      0. 0. 0. 0. 0. 0. 0. 0. 0. 0. 14. 0. 0. 15. 154. 214. 213. 233.
      245. 254. 246. 108. 23. 0. 0. 11. 0. 0. 0. 0. 0. 0. 0. 0. 0. 0. 0.
      0. 0. 5. 16. 38. 229. 255. 255. 255. 234. 238. 248. 255. 176. 74.
      0. 0. 0. 0. 0. 0. 0. 0. 0. 0. 0. 0. 0. 0. 0. 0. 0. 0. 166. 186.
      191. 188. 59. 33. 86. 255. 255. 154. 13. 0. 0. 0. 0. 0. 0. 0. 0.
      0. 0. 0. 0. 0. 3. 12. 13. 0. 8. 0. 2. 12. 0. 7. 133. 255. 255.
      151. 1. 6. 0. 0. 0. 0. 0. 0. 0. 0. 0. 0. 0. 0. 2. 0. 0. 13. 3. 4.
      11. 0. 3. 53. 229. 255. 251. 173. 9. 0. 0. 0. 0. 0. 0. 0. 4. 0. 0.
      5. 0. 4. 4. 0. 7. 0. 0. 0. 6. 0. 0. 136. 250. 255. 248. 174. 0. 0.
      0. 0. 0. 0. 7. 5. 0. 10. 0. 0. 14. 0. 0. 0. 9. 5. 16. 7. 18. 11.
      114. 201. 240. 249. 224. 19. 13. 8. 0. 0. 0. 0. 0. 2. 11. 0. 13.
      23. 0. 0. 6. 4. 0. 0. 0. 17. 126. 255. 255. 255. 244. 224. 25. 0.
      0. 0. 0. 0. 0. 0. 4. 0. 12. 0. 4. 0. 29. 158. 72. 4. 2. 32. 76.
      183. 255. 254. 237. 255. 234. 16. 0. 10. 0. 12. 0. 0. 0. 0. 7. 1.
      0. 12. 0. 19. 217. 252. 233. 202. 196. 224. 239. 249. 252. 252.
      183. 226. 112. 12. 0. 13. 0. 6. 0. 0. 0. 0. 0. 0. 0. 2. 0. 44.
      234. 248. 255. 251. 235. 255. 255. 255. 241. 255. 39. 24. 0. 8. 0.
      0. 17. 0. 0. 0. 0. 0. 9. 0. 10. 0. 0. 0. 94. 219. 254. 241. 255.
      244. 153. 218. 232. 106. 0. 0. 8. 0. 16. 6. 0. 8. 0. 0. 0. 0. 0.
      1. 5. 0. 7. 3. 75. 43. 181. 149. 72. 21. 0. 16. 12. 3. 10. 0. 0.
      4. 0. 3. 2. 0. 0. 0. 0. 0. 0. 0. 0. 0. 0. 0. 0. 0. 0. 0. 0. 0. 0.
      0. 0. 0. 0. 0. 0. 0. 0. 0. 0. 0. 0. 0. 0. 0. 0. 0. 0. 0. 0. 0. 0.
      0. 0. 0. 0. 0. 0. 0. 0. 0. 0. 0. 0. 0. 0. 0. 0. 0. 0. 0. 0. 0. 0.
      0. 0. 0. 0. 0. 0. 0. 0. 0. 0. 0. 0. 0. 0. 0. 0. 0. 0. 0. 0. 0. 0.
      0. 0. 0. 0. 0. 0. 0. 0. 0. 0. 0. 0. 0. 0. 0. 0. 0. 0. 0. 0. 0. 0.
      0. 0. 0. 0. 0. 0. 0. 0. 0. 0. 0.</_>
    <_>
      4. 0. 8. 0. 5. 3. 4. 0. 0. 4. 6. 0. 0. 0. 0. 0. 0. 0. 8. 8. 0. 0.
      2. 0. 0. 0. 0. 0. 6. 6. 0. 0. 0. 0. 13. 12. 0. 0. 6. 9. 0. 0. 5.
      5. 4. 0. 0. 0. 0. 3. 7. 0. 0. 0. 0. 0. 0. 9. 0. 8. 6. 0. 0. 0. 0.
      3. 0. 0. 17. 17. 0. 0. 7. 0. 0. 2. 0. 0. 4. 0. 0. 0. 0. 0. 0. 5.
      0. 0. 3. 5. 2. 14. 0. 11. 0. 0. 0. 0. 0. 10. 0. 0. 5. 9. 0. 0. 0.
      1. 0. 0. 0. 0. 9. 0. 3. 0. 0. 1. 0. 0. 9. 0. 0. 22. 0. 0. 2. 0. 6.
      0. 0. 1. 0. 0. 3. 3. 0. 0. 0. 0. 0. 0. 15. 4. 3. 0. 7. 14. 0. 2.
      0. 55. 102. 157. 185. 250. 48. 14. 0. 0. 1. 6. 5. 0. 0. 0. 0. 0.
      3. 0. 4. 0. 1. 7. 149. 181. 188. 240. 252. 255. 237. 255. 243.
      230. 51. 17. 0. 0. 2. 3. 2. 0. 0. 0. 0. 0. 0. 4. 1. 0. 1. 0. 225.
      255. 244. 173. 175. 168. 83. 231. 252. 54. 4. 0. 0. 2. 0. 0. 2. 6.
      0. 0. 0. 0. 0. 0. 0. 0. 0. 0. 0. 0. 0. 9. 0. 0. 138. 255. 161. 14.
      6. 8. 0. 0. 11. 0. 1. 0. 0. 0. 0. 0. 0. 0. 0. 0. 0. 0. 0. 0. 6. 9.
      0. 43. 232. 238. 44. 0. 2. 0. 30. 3. 0. 12. 0. 15. 0. 0. 0. 0. 0.
      0. 0. 0. 0. 0. 0. 0. 0. 10. 0. 161. 255. 122. 10. 0. 5. 0. 1. 8.
      3. 5. 0. 0. 0. 0. 0. 0. 0. 0. 0. 0. 0. 0. 0. 0. 18. 0. 31. 243.
      253. 62. 0. 70. 137. 123. 51. 1. 0. 0. 3. 4. 0. 0. 0. 0. 0. 0. 0.
      0. 0. 0. 0. 0. 0. 3. 134. 250. 182. 110. 238. 255. 255. 255. 255.
      130. 14. 0. 0. 3. 0. 0. 0. 0. 0. 0. 0. 0. 0. 0. 0. 0. 6. 22. 255.
      250. 255. 255. 226. 102. 69. 91. 192. 245. 115. 2. 11. 0. 0. 0. 0.
      0. 0. 0. 0. 0. 0. 0. 0. 0. 0. 168. 248. 247. 255. 131. 24. 4. 3.
      2. 47. 254. 221. 20. 15. 0. 0. 0. 0. 0. 0. 0. 0. 0. 0. 0. 0. 0.
      30. 255. 253. 255. 78. 0. 16. 0. 3. 0. 0. 173. 255. 90. 0. 2. 0.
      0. 0. 0. 0. 0. 0. 0. 0. 0. 0. 0. 84. 251. 255. 98. 0. 1. 9. 0. 0.
      2. 3. 65. 242. 90. 1. 0. 0. 0. 0. 0. 0. 0. 0. 0. 0. 0. 0. 0. 0.
      91. 34. 0. 0. 4. 0. 7. 11. 0. 0. 5. 255. 170. 5. 0. 0. 0. 0. 0. 0.
      0. 0. 0. 0. 0. 0. 0. 5. 0. 0. 0. 21. 0. 0. 0. 0. 8. 16. 0. 255.
      192. 0. 1. 0. 0. 0. 0. 0. 0. 0. 0. 0. 0. 0. 0. 0. 0. 91. 177. 20.
      13. 2. 0. 9. 7. 0. 2. 255. 188. 7. 4. 0. 0. 0. 0. 0. 0. 0. 0. 0.
      0. 0. 0. 17. 0. 144. 255. 80. 0. 16. 0. 0. 0. 0. 118. 255. 95. 0.
      2. 0. 0. 0. 0. 0. 0. 0. 0. 0. 0. 0. 0. 0. 2. 20. 255. 153. 12. 0.
      4. 12. 0. 12. 190. 209. 33. 0. 3. 0. 0. 0. 0. 0. 0. 0. 0. 0. 0. 0.
      0. 0. 13. 4. 168. 244. 83. 9. 0. 0. 49. 158. 255. 133. 11. 0. 0.
      0. 0. 0. 0. 0. 0. 0. 0. 0. 0. 0. 0. 0. 2. 0. 59. 233. 249. 186.
      185. 180. 218. 253. 177. 0. 2. 4. 0. 0. 0. 0. 0. 0. 0. 0. 0. 0. 0.
      0. 0. 3. 3. 0. 0. 45. 139. 221. 255. 255. 199. 107. 26. 0. 0. 2.
      0. 0. 0. 0. 0. 0. 0. 0. 0. 0. 0. 0. 0. 0. 8. 7. 0. 0. 0. 0. 0. 0.
      0. 0. 0. 0. 5. 2. 0. 0. 0. 0. 0. 0. 0. 0. 0. 0. 0. 0. 0. 0. 0. 0.
      0. 2. 8. 11. 9. 3. 9. 8. 1. 0. 5. 6. 1. 0. 0. 0. 0. 0. 0. 0. 0. 0.
      0. 0. 0. 4. 1. 0. 0. 0. 0. 0. 0. 0. 0. 1. 0. 0. 0. 0. 0. 0. 0. 0.
      0.</_>
    <_>
      0. 0. 0. 0. 0. 0. 0. 0. 6. 0. 3. 0. 12. 0. 0. 4. 0. 2. 3. 6. 0. 0.
      5. 4. 0. 0. 0. 0. 0. 0. 0. 0. 0. 0. 0. 0. 0. 0. 17. 0. 0. 0. 5. 0.
      0. 0. 0. 1. 3. 3. 6. 0. 0. 0. 0. 0. 0. 0. 0. 0. 0. 0. 0. 0. 0. 0.
      0. 9. 4. 15. 8. 0. 1. 10. 0. 0. 1. 0. 11. 0. 0. 0. 0. 0. 0. 0. 0.
      0. 0. 0. 0. 0. 8. 0. 0. 7. 0. 0. 0. 8. 0. 3. 3. 1. 1. 0. 11. 4. 0.
      0. 0. 0. 0. 0. 0. 0. 0. 0. 0. 0. 0. 8. 97. 160. 255. 182. 149. 60.
      11. 0. 4. 8. 10. 0. 6. 0. 0. 0. 0. 0. 0. 0. 0. 0. 0. 0. 0. 0. 123.
      214. 249. 253. 247. 239. 255. 251. 123. 2. 1. 0. 6. 0. 2. 0. 0. 0.
      0. 0. 0. 0. 0. 0. 0. 0. 0. 0. 141. 255. 255. 227. 173. 199. 234.
      255. 234. 19. 3. 0. 0. 1. 0. 1. 0. 0. 0. 0. 0. 0. 0. 0. 0. 0. 0.
      0. 175. 231. 167. 10. 1. 3. 161. 248. 255. 3. 4. 0. 6. 8. 0. 0. 0.
      0. 0. 0. 0. 0. 0. 0. 0. 0. 0. 0. 32. 45. 0. 0. 3. 95. 253. 255.
      232. 14. 0. 0. 0. 11. 0. 0. 0. 0. 0. 0. 0. 0. 0. 0. 0. 0. 0. 0. 0.
      3. 7. 0. 152. 241. 255. 231. 112. 0. 3. 9. 9. 0. 0. 8. 0. 0. 0. 0.
      0. 0. 0. 0. 0. 0. 0. 0. 0. 5. 0. 33. 255. 251. 255. 207. 14. 0. 0.
      0. 7. 0. 0. 2. 0. 0. 0. 0. 0. 0. 0. 0. 0. 0. 0. 0. 4. 0. 11. 45.
      240. 255. 245. 38. 0. 0. 0. 0. 0. 0. 4. 0. 0. 0. 0. 0. 0. 0. 0. 0.
      0. 0. 0. 0. 0. 0. 6. 4. 204. 254. 241. 255. 72. 12. 0. 8. 2. 0. 0.
      3. 0. 0. 0. 0. 0. 0. 0. 0. 0. 0. 0. 0. 0. 0. 5. 0. 48. 168. 255.
      246. 218. 77. 0. 0. 5. 1. 0. 2. 0. 0. 0. 0. 0. 0. 0. 0. 0. 0. 0.
      0. 4. 15. 0. 0. 0. 6. 144. 235. 255. 179. 15. 0. 0. 1. 0. 0. 0. 0.
      0. 0. 0. 0. 0. 0. 0. 0. 0. 0. 0. 0. 6. 0. 6. 0. 0. 65. 213. 248.
      84. 10. 0. 0. 15. 0. 0. 0. 0. 0. 0. 0. 0. 0. 0. 0. 0. 0. 0. 6. 0.
      0. 2. 0. 3. 5. 115. 248. 247. 46. 1. 0. 5. 0. 0. 0. 0. 0. 0. 0. 0.
      0. 0. 0. 0. 0. 9. 0. 3. 0. 14. 0. 11. 0. 116. 255. 236. 56. 0. 6.
      0. 0. 0. 0. 0. 0. 0. 0. 0. 0. 0. 0. 0. 0. 0. 0. 3. 4. 0. 0. 14. 0.
      86. 255. 255. 60. 0. 10. 4. 3. 0. 0. 0. 0. 0. 0. 0. 0. 0. 0. 0. 0.
      58. 195. 92. 0. 0. 5. 0. 106. 199. 255. 219. 26. 17. 0. 0. 10. 0.
      0. 0. 0. 0. 0. 0. 0. 0. 0. 0. 0. 48. 249. 255. 211. 139. 115. 132.
      255. 249. 255. 197. 5. 0. 0. 5. 0. 0. 0. 0. 0. 0. 0. 0. 0. 0. 0.
      0. 0. 22. 204. 255. 219. 255. 255. 255. 248. 255. 235. 130. 7. 0.
      25. 7. 0. 0. 0. 0. 0. 0. 0. 0. 0. 0. 0. 0. 0. 1. 21. 158. 251.
      254. 227. 255. 242. 255. 118. 0. 0. 0. 10. 0. 3. 0. 0. 0. 0. 0. 0.
      0. 0. 0. 0. 0. 0. 0. 0. 6. 16. 51. 160. 174. 33. 32. 0. 0. 2. 0.
      1. 0. 2. 0. 0. 0. 0. 0. 0. 0. 0. 0. 0. 0. 0. 0. 0. 0. 0. 0. 0. 0.
      0. 0. 0. 0. 0. 0. 0. 0. 0. 0. 0. 0. 0. 0. 0. 0. 0. 0. 0. 0. 0. 0.
      0. 0. 0. 0. 0. 0. 0. 0. 0. 0. 0. 0. 0. 0. 0. 0. 0. 0. 0. 0. 0. 0.
      0. 0. 0. 0. 0. 0. 0. 0. 0. 0. 0. 0. 0. 0. 0. 0. 0. 0. 0. 0. 0. 0.
      0. 0. 0. 0. 0. 0. 0. 0. 0. 0. 0. 0. 0. 0. 0. 0. 0. 0. 0. 0. 0. 0.
      0. 0. 0. 0. 0. 0. 0. 0. 0.</_>
    <_>
      0. 0. 0. 0. 0. 0. 0. 0. 0. 1. 0. 5. 3. 0. 0. 8. 5. 0. 6. 0. 5. 7.
      1. 0. 0. 0. 0. 0. 0. 0. 0. 0. 0. 0. 0. 0. 3. 0. 0. 5. 0. 7. 2. 0.
      0. 11. 0. 8. 0. 1. 0. 8. 0. 0. 0. 0. 0. 0. 0. 0. 0. 0. 0. 0. 0. 2.
      9. 8. 0. 2. 8. 0. 0. 0. 0. 0. 22. 0. 9. 5. 0. 0. 0. 0. 0. 0. 0. 0.
      0. 0. 0. 0. 0. 2. 0. 0. 12. 1. 0. 0. 0. 17. 5. 10. 0. 3. 0. 0. 0.
      0. 0. 0. 0. 0. 0. 0. 0. 0. 0. 0. 4. 0. 11. 51. 230. 250. 255. 255.
      255. 213. 145. 101. 29. 2. 1. 4. 0. 0. 0. 0. 0. 0. 0. 0. 0. 0. 0.
      0. 0. 0. 0. 34. 219. 225. 231. 249. 249. 231. 255. 255. 205. 53.
      0. 11. 0. 0. 0. 0. 0. 0. 0. 0. 0. 0. 0. 0. 12. 6. 4. 2. 66. 43.
      36. 44. 47. 26. 43. 167. 255. 208. 3. 0. 0. 0. 0. 0. 0. 0. 0. 0.
