<?xml version="1.0"?>
<opencv_storage>
<opencv_ml_svm>
  <format>3</format>
  <svmType>C_SVC</svmType>
  <kernel>
    <type>LINEAR</type></kernel>
  <C>1.0000000000000001e-01</C>
  <term_criteria><iterations>10000000</iterations></term_criteria>
  <var_count>2</var_count>
  <class_count>2</class_count>
  <class_labels type_id="opencv-matrix">
    <rows>2</rows>
    <cols>1</cols>
    <dt>i</dt>
    <data>
      1 2</data></class_labels>
  <sv_total>1</sv_total>
  <support_vectors>
    <_>
      -6.09236211e-02 8.53630900e-03</_></support_vectors>
  <uncompressed_sv_total>11</uncompressed_sv_total>
  <uncompressed_support_vectors>
    <_>
      1.96500214e+02 7.83085938e+01</_>
    <_>
      1.96764969e+02 1.19491241e+02</_>
    <_>
      2.31091003e+02 3.87311859e+02</_>
    <_>
      2.34375183e+02 4.43013184e+02</_>
    <_>
      2.35173019e+02 1.91045654e+02</_>
    <_>
      2.16950378e+02 3.03707977e+02</_>
    <_>
      2.56939697e+02 3.69948486e+02</_>
    <_>
      2.05393936e+02 2.41751831e+02</_>
    <_>
      2.45341385e+02 3.23930969e+02</_>
    <_>
      2.09043961e+02 2.81881104e+01</_>
    <_>
      2.09502167e+02 2.19659927e+02</_></uncompressed_support_vectors>
  <decision_functions>
    <_>
      <sv_count>1</sv_count>
      <rho>-1.1496254550479401e+01</rho>
      <alpha>
        1.</alpha>
      <index>
        0</index></_></decision_functions></opencv_ml_svm>
</opencv_storage>
